{"learner":{"attributes":{"scikit_learn":"{\"_estimator_type\": \"classifier\"}"},"feature_names":["bill_length_mm","bill_depth_mm","flipper_length_mm","body_mass_g","sex_Female","sex_Male","island_Biscoe","island_Dream","island_Torgersen"],"feature_types":["float","float","float","float","i","i","i","i","i"],"gradient_booster":{"model":{"gbtree_model_param":{"num_parallel_tree":"1","num_trees":"300"},"iteration_indptr":[0,3,6,9,12,15,18,21,24,27,30,33,36,39,42,45,48,51,54,57,60,63,66,69,72,75,78,81,84,87,90,93,96,99,102,105,108,111,114,117,120,123,126,129,132,135,138,141,144,147,150,153,156,159,162,165,168,171,174,177,180,183,186,189,192,195,198,201,204,207,210,213,216,219,222,225,228,231,234,237,240,243,246,249,252,255,258,261,264,267,270,273,276,279,282,285,288,291,294,297,300],"tree_info":[0,1,2,0,1,2,0,1,2,0,1,2,0,1,2,0,1,2,0,1,2,0,1,2,0,1,2,0,1,2,0,1,2,0,1,2,0,1,2,0,1,2,0,1,2,0,1,2,0,1,2,0,1,2,0,1,2,0,1,2,0,1,2,0,1,2,0,1,2,0,1,2,0,1,2,0,1,2,0,1,2,0,1,2,0,1,2,0,1,2,0,1,2,0,1,2,0,1,2,0,1,2,0,1,2,0,1,2,0,1,2,0,1,2,0,1,2,0,1,2,0,1,2,0,1,2,0,1,2,0,1,2,0,1,2,0,1,2,0,1,2,0,1,2,0,1,2,0,1,2,0,1,2,0,1,2,0,1,2,0,1,2,0,1,2,0,1,2,0,1,2,0,1,2,0,1,2,0,1,2,0,1,2,0,1,2,0,1,2,0,1,2,0,1,2,0,1,2,0,1,2,0,1,2,0,1,2,0,1,2,0,1,2,0,1,2,0,1,2,0,1,2,0,1,2,0,1,2,0,1,2,0,1,2,0,1,2,0,1,2,0,1,2,0,1,2,0,1,2,0,1,2,0,1,2,0,1,2,0,1,2,0,1,2,0,1,2,0,1,2,0,1,2,0,1,2,0,1,2,0,1,2,0,1,2,0,1,2,0,1,2,0,1,2,0,1,2,0,1,2],"trees":[{"base_weights":[2.3765141E-1,1.410596E0,-6.104929E-1,-2.5544848E-9,1.4489797E-1,-6.79803E-1,1.0344827E-1,-3.333334E-2,-7.2067045E-2],"categories":[],"categories_nodes":[],"categories_segments":[],"categories_sizes":[],"default_left":[0,0,0,0,0,0,0,0,0],"id":0,"left_children":[1,3,5,-1,-1,7,-1,-1,-1],"loss_changes":[1.1946656E2,2.725235E0,8.671518E0,0E0,0E0,7.178898E-1,0E0,0E0,0E0],"parents":[2147483647,0,0,1,1,2,2,5,5],"right_children":[2,4,6,-1,-1,8,-1,-1,-1],"split_conditions":[4.24E1,1.6E1,1E0,-2.5544848E-9,1.4489797E-1,4.44E1,1.0344827E-1,-3.333334E-2,-7.2067045E-2],"split_indices":[0,1,8,0,0,0,0,0,0],"split_type":[0,0,0,0,0,0,0,0,0],"sum_hessian":[1.1822221E2,4.9333332E1,6.8888885E1,1.3333333E0,4.7999996E1,6.6666664E1,2.222222E0,7.9999995E0,5.8666664E1],"tree_param":{"num_deleted":"0","num_feature":"9","num_nodes":"9","size_leaf_vector":"1"}},{"base_weights":[-2.9077357E-1,-7.400297E-2,4.6666664E-1,-6.648649E-1,1.3624454E0,-2.5544848E-9,-7.1098275E-2,5.454545E-2,1.4341463E-1],"categories":[],"categories_nodes":[],"categories_segments":[],"categories_sizes":[],"default_left":[0,0,0,0,0,0,0,0,0],"id":1,"left_children":[1,-1,3,5,7,-1,-1,-1,-1],"loss_changes":[4.0914825E1,0E0,4.6517925E1,6.302757E-1,7.0824814E-1,0E0,0E0,0E0,0E0],"parents":[2147483647,0,0,2,2,3,3,4,4],"right_children":[2,-1,4,6,8,-1,-1,-1,-1],"split_conditions":[1E0,-7.400297E-2,4.24E1,1.69E1,4.44E1,-2.5544848E-9,-7.1098275E-2,5.454545E-2,1.4341463E-1],"split_indices":[7,0,0,1,0,0,0,0,0],"split_type":[0,0,0,0,0,0,0,0,0],"sum_hessian":[1.1822221E2,7.422222E1,4.3999996E1,1.9555553E1,2.4444443E1,1.3333333E0,1.8222221E1,2.6666665E0,2.1777777E1],"tree_param":{"num_deleted":"0","num_feature":"9","num_nodes":"9","size_leaf_vector":"1"}},{"base_weights":[5.3122044E-2,-7.399104E-2,1.3365617E0,1.4652957E-1,-5.454546E-2],"categories":[],"categories_nodes":[],"categories_segments":[],"categories_sizes":[],"default_left":[0,0,0,0,0],"id":2,"left_children":[1,-1,3,-1,-1],"loss_changes":[1.2233441E2,0E0,1.1917175E1,0E0,0E0],"parents":[2147483647,0,0,2,2],"right_children":[2,-1,4,-1,-1],"split_conditions":[2.08E2,-7.399104E-2,1.75E1,1.4652957E-1,-5.454546E-2],"split_indices":[2,0,1,0,0],"split_type":[0,0,0,0,0],"sum_hessian":[1.1822221E2,7.333333E1,4.4888885E1,4.222222E1,2.6666665E0],"tree_param":{"num_deleted":"0","num_feature":"9","num_nodes":"5","size_leaf_vector":"1"}},{"base_weights":[2.185636E-1,1.2291046E0,-5.835268E-1,1.2614946E-1,-1.2331413E-3,-6.5252835E-1,9.381016E-2,-3.1535182E-2,-6.932213E-2],"categories":[],"categories_nodes":[],"categories_segments":[],"categories_sizes":[],"default_left":[0,0,0,0,0,0,0,0,0],"id":3,"left_children":[1,3,5,-1,-1,7,-1,-1,-1],"loss_changes":[9.791398E1,2.1621475E0,7.7025146E0,0E0,0E0,6.7585945E-1,0E0,0E0,0E0],"parents":[2147483647,0,0,1,1,2,2,5,5],"right_children":[2,4,6,-1,-1,8,-1,-1,-1],"split_conditions":[4.24E1,2.07E2,1E0,1.2614946E-1,-1.2331413E-3,4.44E1,9.381016E-2,-3.1535182E-2,-6.932213E-2],"split_indices":[0,2,8,0,0,0,0,0,0],"split_type":[0,0,0,0,0,0,0,0,0],"sum_hessian":[1.18915276E2,5.23845E1,6.653078E1,5.103675E1,1.3477479E0,6.4191055E1,2.3397183E0,7.8550177E0,5.633604E1],"tree_param":{"num_deleted":"0","num_feature":"9","num_nodes":"9","size_leaf_vector":"1"}},{"base_weights":[-2.7366742E-1,-7.127361E-2,4.256092E-1,-6.374727E-1,1.1925613E0,1.1849868E-3,-6.842487E-2,4.9332358E-2,1.2519531E-1],"categories":[],"categories_nodes":[],"categories_segments":[],"categories_sizes":[],"default_left":[0,0,0,0,0,0,0,0,0],"id":4,"left_children":[1,-1,3,5,7,-1,-1,-1,-1],"loss_changes":[3.620512E1,0E0,3.804361E1,6.099682E-1,5.0001144E-1,0E0,0E0,0E0,0E0],"parents":[2147483647,0,0,2,2,3,3,4,4],"right_children":[2,-1,4,6,8,-1,-1,-1,-1],"split_conditions":[1E0,-7.127361E-2,4.24E1,1.69E1,4.44E1,1.1849868E-3,-6.842487E-2,4.9332358E-2,1.2519531E-1],"split_indices":[7,0,0,1,0,0,0,0,0],"split_type":[0,0,0,0,0,0,0,0,0],"sum_hessian":[1.15932304E2,7.120449E1,4.4727814E1,1.8815807E1,2.5912004E1,1.3145472E0,1.750126E1,2.7571769E0,2.3154827E1],"tree_param":{"num_deleted":"0","num_feature":"9","num_nodes":"9","size_leaf_vector":"1"}},{"base_weights":[4.8706613E-2,-7.132118E-2,1.170162E0,1.2768881E-1,-5.2465934E-2],"categories":[],"categories_nodes":[],"categories_segments":[],"categories_sizes":[],"default_left":[0,0,0,0,0],"id":5,"left_children":[1,-1,3,-1,-1],"loss_changes":[1.0243368E2,0E0,9.439369E0,0E0,0E0],"parents":[2147483647,0,0,2,2],"right_children":[2,-1,4,-1,-1],"split_conditions":[2.08E2,-7.132118E-2,1.75E1,1.2768881E-1,-5.2465934E-2],"split_indices":[2,0,1,0,0],"split_type":[0,0,0,0,0],"sum_hessian":[1.1790483E2,7.042322E1,4.748161E1,4.490072E1,2.5808892E0],"tree_param":{"num_deleted":"0","num_feature":"9","num_nodes":"5","size_leaf_vector":"1"}},{"base_weights":[2.0303257E-1,1.0948015E0,-5.590857E-1,-1.0448367E-3,1.1224576E-1,-6.277449E-1,8.5844E-2,-3.709343E-2,-6.868625E-2],"categories":[],"categories_nodes":[],"categories_segments":[],"categories_sizes":[],"default_left":[0,0,0,0,0,0,0,0,0],"id":6,"left_children":[1,3,5,-1,-1,7,-1,-1,-1],"loss_changes":[8.164698E1,1.7014999E0,6.860409E0,0E0,0E0,6.945343E-1,0E0,0E0,0E0],"parents":[2147483647,0,0,1,1,2,2,5,5],"right_children":[2,4,6,-1,-1,8,-1,-1,-1],"split_conditions":[4.24E1,1.6E1,1E0,-1.0448367E-3,1.1224576E-1,1.97E2,8.5844E-2,-3.709343E-2,-6.868625E-2],"split_indices":[0,1,8,0,0,2,0,0,0],"split_type":[0,0,0,0,0,0,0,0,0],"sum_hessian":[1.1823324E2,5.4281227E1,6.3952007E1,1.3402845E0,5.2940945E1,6.1528954E1,2.4230561E0,1.2874743E1,4.865421E1],"tree_param":{"num_deleted":"0","num_feature":"9","num_nodes":"9","size_leaf_vector":"1"}},{"base_weights":[-2.5907838E-1,-6.8861134E-2,3.9208442E-1,-6.128598E-1,1.0649134E0,2.382474E-3,-6.606781E-2,4.4736903E-2,1.1168971E-1],"categories":[],"categories_nodes":[],"categories_segments":[],"categories_sizes":[],"default_left":[0,0,0,0,0,0,0,0,0],"id":7,"left_children":[1,-1,3,5,7,-1,-1,-1,-1],"loss_changes":[3.210846E1,0E0,3.1675333E1,5.9523773E-1,3.942814E-1,0E0,0E0,0E0,0E0],"parents":[2147483647,0,0,2,2,3,3,4,4],"right_children":[2,-1,4,6,8,-1,-1,-1,-1],"split_conditions":[1E0,-6.8861134E-2,4.24E1,1.69E1,4.44E1,2.382474E-3,-6.606781E-2,4.4736903E-2,1.1168971E-1],"split_indices":[7,0,0,1,0,0,0,0,0],"split_type":[0,0,0,0,0,0,0,0,0],"sum_hessian":[1.1283245E2,6.7951454E1,4.4880997E1,1.8034143E1,2.6846851E1,1.2948902E0,1.6739254E1,2.8302824E0,2.401657E1],"tree_param":{"num_deleted":"0","num_feature":"9","num_nodes":"9","size_leaf_vector":"1"}},{"base_weights":[4.5020264E-2,-6.895238E-2,1.0458993E0,1.1382736E-1,-5.0768226E-2],"categories":[],"categories_nodes":[],"categories_segments":[],"categories_sizes":[],"default_left":[0,0,0,0,0],"id":8,"left_children":[1,-1,3,-1,-1],"loss_changes":[8.699852E1,0E0,7.7633476E0,0E0,0E0],"parents":[2147483647,0,0,2,2],"right_children":[2,-1,4,-1,-1],"split_conditions":[2.08E2,-6.895238E-2,1.75E1,1.1382736E-1,-5.0768226E-2],"split_indices":[2,0,1,0,0],"split_type":[0,0,0,0,0],"sum_hessian":[1.1635384E2,6.728473E1,4.906911E1,4.6567574E1,2.501536E0],"tree_param":{"num_deleted":"0","num_feature":"9","num_nodes":"5","size_leaf_vector":"1"}},{"base_weights":[1.9016968E-1,9.918792E-1,-5.3680354E-1,1.0169083E-1,-1.9212008E-3,-6.050839E-1,7.917541E-2,-6.671839E-2,-3.5572555E-2],"categories":[],"categories_nodes":[],"categories_segments":[],"categories_sizes":[],"default_left":[0,0,0,0,0,0,0,0,0],"id":9,"left_children":[1,3,5,-1,-1,7,-1,-1,-1],"loss_changes":[6.8958824E1,1.4413643E0,6.1234627E0,0E0,0E0,6.8785477E-1,0E0,0E0,0E0],"parents":[2147483647,0,0,1,1,2,2,5,5],"right_children":[2,4,6,-1,-1,8,-1,-1,-1],"split_conditions":[4.24E1,2.07E2,1E0,1.0169083E-1,-1.9212008E-3,1.83E1,7.917541E-2,-6.671839E-2,-3.5572555E-2],"split_indices":[0,2,8,0,0,1,0,0,0],"split_type":[0,0,0,0,0,0,0,0,0],"sum_hessian":[1.1640541E2,5.518392E1,6.122149E1,5.3845253E1,1.3386686E0,5.874679E1,2.4746978E0,4.5692074E1,1.3054717E1],"tree_param":{"num_deleted":"0","num_feature":"9","num_nodes":"9","size_leaf_vector":"1"}},{"base_weights":[-2.4613658E-1,-6.676038E-2,3.6662936E-1,-5.899123E-1,9.686135E-1,3.5824482E-3,-6.391408E-2,4.0366422E-2,1.0169848E-1],"categories":[],"categories_nodes":[],"categories_segments":[],"categories_sizes":[],"default_left":[0,0,0,0,0,0,0,0,0],"id":10,"left_children":[1,-1,3,5,7,-1,-1,-1,-1],"loss_changes":[2.8683088E1,0E0,2.6782341E1,5.836339E-1,3.6327362E-1,0E0,0E0,0E0,0E0],"parents":[2147483647,0,0,2,2,3,3,4,4],"right_children":[2,-1,4,6,8,-1,-1,-1,-1],"split_conditions":[1E0,-6.676038E-2,4.24E1,1.69E1,4.44E1,3.5824482E-3,-6.391408E-2,4.0366422E-2,1.0169848E-1],"split_indices":[7,0,0,1,0,0,0,0,0],"split_type":[0,0,0,0,0,0,0,0,0],"sum_hessian":[1.0911476E2,6.459566E1,4.4519108E1,1.7203352E1,2.7315754E1,1.2745829E0,1.5928769E1,2.8913672E0,2.4424387E1],"tree_param":{"num_deleted":"0","num_feature":"9","num_nodes":"9","size_leaf_vector":"1"}},{"base_weights":[4.1622825E-2,-6.6841416E-2,9.491508E-1,1.030825E-1,-4.8921034E-2],"categories":[],"categories_nodes":[],"categories_segments":[],"categories_sizes":[],"default_left":[0,0,0,0,0],"id":11,"left_children":[1,-1,3,-1,-1],"loss_changes":[7.45784E1,0E0,6.4702835E0,0E0,0E0],"parents":[2147483647,0,0,2,2],"right_children":[2,-1,4,-1,-1],"split_conditions":[2.08E2,-6.6841416E-2,1.75E1,1.030825E-1,-4.8921034E-2],"split_indices":[2,0,1,0,0],"split_type":[0,0,0,0,0],"sum_hessian":[1.137524E2,6.396813E1,4.9784275E1,4.7377384E1,2.4068887E0],"tree_param":{"num_deleted":"0","num_feature":"9","num_nodes":"5","size_leaf_vector":"1"}},{"base_weights":[1.7940947E-1,9.107519E-1,-5.163336E-1,-1.8118268E-3,9.3351014E-2,-5.842071E-1,7.352581E-2,-3.2484945E-2,-6.465397E-2],"categories":[],"categories_nodes":[],"categories_segments":[],"categories_sizes":[],"default_left":[0,0,0,0,0,0,0,0,0],"id":12,"left_children":[1,3,5,-1,-1,7,-1,-1,-1],"loss_changes":[5.880408E1,1.2060928E0,5.474725E0,0E0,0E0,7.097149E-1,0E0,0E0,0E0],"parents":[2147483647,0,0,1,1,2,2,5,5],"right_children":[2,4,6,-1,-1,8,-1,-1,-1],"split_conditions":[4.24E1,1.6E1,1E0,-1.8118268E-3,9.3351014E-2,1.97E2,7.352581E-2,-3.2484945E-2,-6.465397E-2],"split_indices":[0,1,8,0,0,2,0,0,0],"split_type":[0,0,0,0,0,0,0,0,0],"sum_hessian":[1.13643875E2,5.5253826E1,5.839005E1,1.3262771E0,5.3927547E1,5.5892254E1,2.4977956E0,1.2033593E1,4.385866E1],"tree_param":{"num_deleted":"0","num_feature":"9","num_nodes":"9","size_leaf_vector":"1"}},{"base_weights":[-2.3468667E-1,-6.488728E-2,3.4519964E-1,-5.6904006E-1,8.9144355E-1,4.779202E-3,-6.200204E-2,3.610259E-2,9.384751E-2],"categories":[],"categories_nodes":[],"categories_segments":[],"categories_sizes":[],"default_left":[0,0,0,0,0,0,0,0,0],"id":13,"left_children":[1,-1,3,5,7,-1,-1,-1,-1],"loss_changes":[2.566506E1,0E0,2.2873734E1,5.75582E-1,3.703003E-1,0E0,0E0,0E0,0E0],"parents":[2147483647,0,0,2,2,3,3,4,4],"right_children":[2,-1,4,6,8,-1,-1,-1,-1],"split_conditions":[1E0,-6.488728E-2,4.24E1,1.69E1,4.44E1,4.779202E-3,-6.200204E-2,3.610259E-2,9.384751E-2],"split_indices":[7,0,0,1,0,0,0,0,0],"split_type":[0,0,0,0,0,0,0,0,0],"sum_hessian":[1.0492466E2,6.113779E1,4.378687E1,1.636137E1,2.7425497E1,1.2537898E0,1.5107581E1,2.940382E0,2.4485115E1],"tree_param":{"num_deleted":"0","num_feature":"9","num_nodes":"9","size_leaf_vector":"1"}},{"base_weights":[3.8547724E-2,-6.497127E-2,8.727228E-1,9.467371E-2,-4.7275867E-2],"categories":[],"categories_nodes":[],"categories_segments":[],"categories_sizes":[],"default_left":[0,0,0,0,0],"id":14,"left_children":[1,-1,3,-1,-1],"loss_changes":[6.4475784E1,0E0,5.5014534E0,0E0,0E0],"parents":[2147483647,0,0,2,2],"right_children":[2,-1,4,-1,-1],"split_conditions":[2.08E2,-6.497127E-2,1.75E1,9.467371E-2,-4.7275867E-2],"split_indices":[2,0,1,0,0],"split_type":[0,0,0,0,0],"sum_hessian":[1.1031418E2,6.056467E1,4.9749508E1,4.7436413E1,2.3130932E0],"tree_param":{"num_deleted":"0","num_feature":"9","num_nodes":"5","size_leaf_vector":"1"}},{"base_weights":[1.703348E-1,8.45395E-1,-4.975114E-1,8.668418E-2,-2.3715745E-3,-5.6497246E-1,6.8684004E-2,-2.174302E-2,-6.1135408E-2],"categories":[],"categories_nodes":[],"categories_segments":[],"categories_sizes":[],"default_left":[0,0,0,0,0,0,0,0,0],"id":15,"left_children":[1,3,5,-1,-1,7,-1,-1,-1],"loss_changes":[5.052358E1,1.0576477E0,4.901841E0,0E0,0E0,7.375126E-1,0E0,0E0,0E0],"parents":[2147483647,0,0,1,1,2,2,5,5],"right_children":[2,4,6,-1,-1,8,-1,-1,-1],"split_conditions":[4.24E1,2.07E2,1E0,8.668418E-2,-2.3715745E-3,4.44E1,6.8684004E-2,-2.174302E-2,-6.1135408E-2],"split_indices":[0,2,8,0,0,0,0,0,0],"split_type":[0,0,0,0,0,0,0,0,0],"sum_hessian":[1.10133415E2,5.463868E1,5.5494736E1,5.3325394E1,1.3132837E0,5.299887E1,2.4958663E0,6.909921E0,4.6088947E1],"tree_param":{"num_deleted":"0","num_feature":"9","num_nodes":"9","size_leaf_vector":"1"}},{"base_weights":[-2.24533E-1,-6.3227795E-2,3.2749227E-1,-5.493208E-1,8.283065E-1,5.9656887E-3,-6.0240205E-2,3.2602876E-2,8.744711E-2],"categories":[],"categories_nodes":[],"categories_segments":[],"categories_sizes":[],"default_left":[0,0,0,0,0,0,0,0,0],"id":16,"left_children":[1,-1,3,5,7,-1,-1,-1,-1],"loss_changes":[2.3027416E1,0E0,1.9658134E1,5.692692E-1,3.695221E-1,0E0,0E0,0E0,0E0],"parents":[2147483647,0,0,2,2,3,3,4,4],"right_children":[2,-1,4,6,8,-1,-1,-1,-1],"split_conditions":[1E0,-6.3227795E-2,4.24E1,1.69E1,4.44E1,5.9656887E-3,-6.0240205E-2,3.2602876E-2,8.744711E-2],"split_indices":[7,0,0,1,0,0,0,0,0],"split_type":[0,0,0,0,0,0,0,0,0],"sum_hessian":[1.00385254E2,5.7654373E1,4.2730885E1,1.5498916E1,2.723197E1,1.2327082E0,1.4266207E1,2.9708588E0,2.426111E1],"tree_param":{"num_deleted":"0","num_feature":"9","num_nodes":"9","size_leaf_vector":"1"}},{"base_weights":[3.5758775E-2,-6.331608E-2,8.1137663E-1,8.795309E-2,-4.562482E-2],"categories":[],"categories_nodes":[],"categories_segments":[],"categories_sizes":[],"default_left":[0,0,0,0,0],"id":17,"left_children":[1,-1,3,-1,-1],"loss_changes":[5.614791E1,0E0,4.7290688E0,0E0,0E0],"parents":[2147483647,0,0,2,2],"right_children":[2,-1,4,-1,-1],"split_conditions":[2.08E2,-6.331608E-2,1.75E1,8.795309E-2,-4.562482E-2],"split_indices":[2,0,1,0,0],"split_type":[0,0,0,0,0],"sum_hessian":[1.0623092E2,5.713736E1,4.909356E1,4.687924E1,2.2143197E0],"tree_param":{"num_deleted":"0","num_feature":"9","num_nodes":"5","size_leaf_vector":"1"}},{"base_weights":[1.6264763E-1,7.3236144E-1,-5.4707414E-1,-4.7090974E-2,7.936157E-1,-5.824475E-1,-1.1164354E-1,4.061586E-2,8.175325E-2,-2.900515E-2,-5.964302E-2,5.1557124E-2,-4.598328E-2],"categories":[],"categories_nodes":[],"categories_segments":[],"categories_sizes":[],"default_left":[0,0,0,0,0,0,0,0,0,0,0,0,0],"id":18,"left_children":[1,3,5,-1,7,9,11,-1,-1,-1,-1,-1,-1],"loss_changes":[4.3687172E1,4.7822456E0,6.780367E-1,0E0,1.9882202E-1,8.453369E-3,1.2988399E0,0E0,0E0,0E0,0E0,0E0,0E0],"parents":[2147483647,0,0,1,1,2,2,4,4,5,5,6,6],"right_children":[2,4,6,-1,8,10,12,-1,-1,-1,-1,-1,-1],"split_conditions":[4.33E1,1.48E1,1.97E1,-4.7090974E-2,1.68E1,4.44E1,4.94E1,4.061586E-2,8.175325E-2,-2.900515E-2,-5.964302E-2,5.1557124E-2,-4.598328E-2],"split_indices":[0,1,1,0,1,0,0,0,0,0,0,0,0],"split_type":[0,0,0,0,0,0,0,0,0,0,0,0,0],"sum_hessian":[1.060552E2,5.8812683E1,4.724251E1,2.5249577E0,5.6287727E1,4.3380722E1,3.8617892E0,4.3179555E0,5.1969772E1,2.9721801E0,4.0408543E1,1.2069372E0,2.654852E0],"tree_param":{"num_deleted":"0","num_feature":"9","num_nodes":"13","size_leaf_vector":"1"}},{"base_weights":[-2.1610662E-1,-6.173077E-2,3.1057104E-1,-5.311375E-1,7.7379704E-1,7.1377815E-3,-5.8663648E-2,2.9716888E-2,8.1928745E-2],"categories":[],"categories_nodes":[],"categories_segments":[],"categories_sizes":[],"default_left":[0,0,0,0,0,0,0,0,0],"id":19,"left_children":[1,-1,3,5,7,-1,-1,-1,-1],"loss_changes":[2.0595133E1,0E0,1.6949154E1,5.651903E-1,3.5856438E-1,0E0,0E0,0E0,0E0],"parents":[2147483647,0,0,2,2,3,3,4,4],"right_children":[2,-1,4,6,8,-1,-1,-1,-1],"split_conditions":[1E0,-6.173077E-2,4.24E1,1.69E1,4.44E1,7.1377815E-3,-5.8663648E-2,2.9716888E-2,8.1928745E-2],"split_indices":[7,0,0,1,0,0,0,0,0],"split_type":[0,0,0,0,0,0,0,0,0],"sum_hessian":[9.555971E1,5.4143425E1,4.141628E1,1.4649919E1,2.676636E1,1.2114878E0,1.3438431E1,2.9883459E0,2.3778013E1],"tree_param":{"num_deleted":"0","num_feature":"9","num_nodes":"9","size_leaf_vector":"1"}},{"base_weights":[3.36304E-2,-6.1849434E-2,7.618855E-1,8.25966E-2,-4.4255167E-2],"categories":[],"categories_nodes":[],"categories_segments":[],"categories_sizes":[],"default_left":[0,0,0,0,0],"id":20,"left_children":[1,-1,3,-1,-1],"loss_changes":[4.9260014E1,0E0,4.1459465E0,0E0,0E0],"parents":[2147483647,0,0,2,2],"right_children":[2,-1,4,-1,-1],"split_conditions":[2.08E2,-6.1849434E-2,1.75E1,8.25966E-2,-4.4255167E-2],"split_indices":[2,0,1,0,0],"split_type":[0,0,0,0,0],"sum_hessian":[1.01732025E2,5.3750877E1,4.7981148E1,4.5855686E1,2.1254604E0],"tree_param":{"num_deleted":"0","num_feature":"9","num_nodes":"5","size_leaf_vector":"1"}},{"base_weights":[1.5548626E-1,7.481147E-1,-4.6468523E-1,-1.9349821E-3,7.672031E-1,-5.3214693E-1,6.183651E-2,3.518383E-2,7.842946E-2,-6.0498E-2,-2.5964124E-2],"categories":[],"categories_nodes":[],"categories_segments":[],"categories_sizes":[],"default_left":[0,0,0,0,0,0,0,0,0,0,0],"id":21,"left_children":[1,3,5,-1,7,9,-1,-1,-1,-1,-1],"loss_changes":[3.8087402E1,7.896843E-1,4.040228E0,0E0,9.0602875E-2,8.025894E-1,0E0,0E0,0E0,0E0,0E0],"parents":[2147483647,0,0,1,1,2,2,4,4,5,5],"right_children":[2,4,6,-1,8,10,-1,-1,-1,-1,-1],"split_conditions":[4.24E1,1.6E1,1E0,-1.9349821E-3,1.67E1,1.83E1,6.183651E-2,3.518383E-2,7.842946E-2,-6.0498E-2,-2.5964124E-2],"split_indices":[0,1,8,0,1,1,0,0,0,0,0],"split_type":[0,0,0,0,0,0,0,0,0,0,0],"sum_hessian":[1.01684494E2,5.189139E1,4.97931E1,1.2589877E0,5.0632404E1,4.7352253E1,2.4408455E0,2.8541899E0,4.7778217E1,3.640276E1,1.0949492E1],"tree_param":{"num_deleted":"0","num_feature":"9","num_nodes":"11","size_leaf_vector":"1"}},{"base_weights":[-2.0792381E-1,-6.039865E-2,2.9806888E-1,-5.140721E-1,7.309157E-1,7.687285E-3,-5.7188984E-2,2.8652623E-2,7.741852E-2],"categories":[],"categories_nodes":[],"categories_segments":[],"categories_sizes":[],"default_left":[0,0,0,0,0,0,0,0,0],"id":22,"left_children":[1,-1,3,5,7,-1,-1,-1,-1],"loss_changes":[1.8546638E1,0E0,1.475658E1,5.4997635E-1,2.992468E-1,0E0,0E0,0E0,0E0],"parents":[2147483647,0,0,2,2,3,3,4,4],"right_children":[2,-1,4,6,8,-1,-1,-1,-1],"split_conditions":[1E0,-6.039865E-2,4.24E1,1.69E1,4.44E1,7.687285E-3,-5.7188984E-2,2.8652623E-2,7.741852E-2],"split_indices":[7,0,0,1,0,0,0,0,0],"split_type":[0,0,0,0,0,0,0,0,0],"sum_hessian":[9.064752E1,5.0738556E1,3.9908966E1,1.3809969E1,2.6098995E1,1.2013716E0,1.2608597E1,2.9920208E0,2.3106976E1],"tree_param":{"num_deleted":"0","num_feature":"9","num_nodes":"9","size_leaf_vector":"1"}},{"base_weights":[3.1561352E-2,-6.0511082E-2,7.2003126E-1,7.810344E-2,-4.2954516E-2],"categories":[],"categories_nodes":[],"categories_segments":[],"categories_sizes":[],"default_left":[0,0,0,0,0],"id":23,"left_children":[1,-1,3,-1,-1],"loss_changes":[4.3345676E1,0E0,3.665886E0,0E0,0E0],"parents":[2147483647,0,0,2,2],"right_children":[2,-1,4,-1,-1],"split_conditions":[2.08E2,-6.0511082E-2,1.75E1,7.810344E-2,-4.2954516E-2],"split_indices":[2,0,1,0,0],"split_type":[0,0,0,0,0],"sum_hessian":[9.68943E1,5.0403778E1,4.649052E1,4.4452225E1,2.0382977E0],"tree_param":{"num_deleted":"0","num_feature":"9","num_nodes":"5","size_leaf_vector":"1"}},{"base_weights":[1.4986864E-1,6.5634876E-1,-5.164456E-1,-4.389226E-2,7.108121E-1,-5.548209E-1,-7.8112446E-2,3.516945E-2,7.3401384E-2,-2.6386706E-2,-5.6937706E-2,5.045815E-2,-4.3310743E-2],"categories":[],"categories_nodes":[],"categories_segments":[],"categories_sizes":[],"default_left":[0,0,0,0,0,0,0,0,0,0,0,0,0],"id":24,"left_children":[1,3,5,-1,7,9,11,-1,-1,-1,-1,-1,-1],"loss_changes":[3.3398235E1,3.6582336E0,6.776962E-1,0E0,1.9029427E-1,1.5991211E-2,1.173062E0,0E0,0E0,0E0,0E0,0E0,0E0],"parents":[2147483647,0,0,1,1,2,2,4,4,5,5,6,6],"right_children":[2,4,6,-1,8,10,12,-1,-1,-1,-1,-1,-1],"split_conditions":[4.33E1,1.48E1,1.97E1,-4.389226E-2,1.68E1,4.44E1,1.97E2,3.516945E-2,7.3401384E-2,-2.6386706E-2,-5.6937706E-2,5.045815E-2,-4.3310743E-2],"split_indices":[0,1,1,0,1,0,2,0,0,0,0,0,0],"split_type":[0,0,0,0,0,0,0,0,0,0,0,0,0],"sum_hessian":[9.696066E1,5.5095963E1,4.1864704E1,2.2755241E0,5.282044E1,3.825021E1,3.6144948E0,4.1860867E0,4.863435E1,2.7337868E0,3.5516422E1,1.2088666E0,2.405628E0],"tree_param":{"num_deleted":"0","num_feature":"9","num_nodes":"13","size_leaf_vector":"1"}},{"base_weights":[-2.004426E-1,-5.921773E-2,2.872276E-1,-4.9750564E-1,6.928233E-1,8.522772E-3,-5.581921E-2,2.5520567E-2,7.381173E-2],"categories":[],"categories_nodes":[],"categories_segments":[],"categories_sizes":[],"default_left":[0,0,0,0,0,0,0,0,0],"id":25,"left_children":[1,-1,3,5,7,-1,-1,-1,-1],"loss_changes":[1.6740211E1,0E0,1.2856772E1,5.4185534E-1,3.3360767E-1,0E0,0E0,0E0,0E0],"parents":[2147483647,0,0,2,2,3,3,4,4],"right_children":[2,-1,4,6,8,-1,-1,-1,-1],"split_conditions":[1E0,-5.921773E-2,4.24E1,1.69E1,4.44E1,8.522772E-3,-5.581921E-2,2.5520567E-2,7.381173E-2],"split_indices":[7,0,0,1,0,0,0,0,0],"split_type":[0,0,0,0,0,0,0,0,0],"sum_hessian":[8.5737625E1,4.7426594E1,3.8311028E1,1.2976983E1,2.5334045E1,1.1858282E0,1.1791155E1,2.9984345E0,2.233561E1],"tree_param":{"num_deleted":"0","num_feature":"9","num_nodes":"9","size_leaf_vector":"1"}},{"base_weights":[2.9135583E-2,-5.933864E-2,6.848095E-1,7.428893E-2,-4.14305E-2],"categories":[],"categories_nodes":[],"categories_segments":[],"categories_sizes":[],"default_left":[0,0,0,0,0],"id":26,"left_children":[1,-1,3,-1,-1],"loss_changes":[3.829727E1,0E0,3.2235641E0,0E0,0E0],"parents":[2147483647,0,0,2,2],"right_children":[2,-1,4,-1,-1],"split_conditions":[2.08E2,-5.933864E-2,1.75E1,7.428893E-2,-4.14305E-2],"split_indices":[2,0,1,0,0],"split_type":[0,0,0,0,0],"sum_hessian":[9.183089E1,4.7155056E1,4.4675827E1,4.274137E1,1.9344542E0],"tree_param":{"num_deleted":"0","num_feature":"9","num_nodes":"5","size_leaf_vector":"1"}},{"base_weights":[1.4431323E-1,6.247496E-1,-5.019959E-1,-4.2353798E-2,6.765626E-1,-5.4178953E-1,-6.476512E-2,6.985646E-2,2.9655451E-2,-2.5198413E-2,-5.5683095E-2,4.9018662E-2,-4.2002745E-2],"categories":[],"categories_nodes":[],"categories_segments":[],"categories_sizes":[],"default_left":[0,0,0,0,0,0,0,0,0,0,0,0,0],"id":27,"left_children":[1,3,5,-1,7,9,11,-1,-1,-1,-1,-1,-1],"loss_changes":[2.9241741E1,3.2132835E0,6.657171E-1,0E0,2.2536278E-1,2.002716E-2,1.09226E0,0E0,0E0,0E0,0E0,0E0,0E0],"parents":[2147483647,0,0,1,1,2,2,4,4,5,5,6,6],"right_children":[2,4,6,-1,8,10,12,-1,-1,-1,-1,-1,-1],"split_conditions":[4.33E1,1.48E1,1.97E1,-4.2353798E-2,4.24E1,4.44E1,4.94E1,6.985646E-2,2.9655451E-2,-2.5198413E-2,-5.5683095E-2,4.9018662E-2,-4.2002745E-2],"split_indices":[0,1,1,0,0,0,0,0,0,0,0,0,0],"split_type":[0,0,0,0,0,0,0,0,0,0,0,0,0],"sum_hessian":[9.216311E1,5.288454E1,3.927857E1,2.1528783E0,5.0731663E1,3.578274E1,3.4958296E0,4.7162712E1,3.56895E0,2.641486E0,3.3141254E1,1.2162108E0,2.2796187E0],"tree_param":{"num_deleted":"0","num_feature":"9","num_nodes":"13","size_leaf_vector":"1"}},{"base_weights":[-1.9361475E-1,-5.8138903E-2,2.7791795E-1,-4.8202923E-1,6.612063E-1,9.03627E-3,-5.456189E-2,7.25451E-2,3.298268E-2],"categories":[],"categories_nodes":[],"categories_segments":[],"categories_sizes":[],"default_left":[0,0,0,0,0,0,0,0,0],"id":28,"left_children":[1,-1,3,5,7,-1,-1,-1,-1],"loss_changes":[1.5121458E1,0E0,1.1269966E1,5.2915597E-1,3.017683E-1,0E0,0E0,0E0,0E0],"parents":[2147483647,0,0,2,2,3,3,4,4],"right_children":[2,-1,4,6,8,-1,-1,-1,-1],"split_conditions":[1E0,-5.8138903E-2,4.24E1,1.69E1,4.075E3,9.03627E-3,-5.456189E-2,7.25451E-2,3.298268E-2],"split_indices":[7,0,0,1,3,0,0,0,0],"split_type":[0,0,0,0,0,0,0,0,0],"sum_hessian":[8.081583E1,4.4218716E1,3.659711E1,1.2183409E1,2.4413704E1,1.1760805E0,1.1007328E1,1.9453136E1,4.960567E0],"tree_param":{"num_deleted":"0","num_feature":"9","num_nodes":"9","size_leaf_vector":"1"}},{"base_weights":[2.7317643E-2,-5.825625E-2,6.546999E-1,7.110505E-2,-4.025538E-2],"categories":[],"categories_nodes":[],"categories_segments":[],"categories_sizes":[],"default_left":[0,0,0,0,0],"id":29,"left_children":[1,-1,3,-1,-1],"loss_changes":[3.3942375E1,0E0,2.8901196E0,0E0,0E0],"parents":[2147483647,0,0,2,2],"right_children":[2,-1,4,-1,-1],"split_conditions":[2.08E2,-5.825625E-2,1.75E1,7.110505E-2,-4.025538E-2],"split_indices":[2,0,1,0,0],"split_type":[0,0,0,0,0],"sum_hessian":[8.6711754E1,4.4005405E1,4.2706345E1,4.085621E1,1.8501388E0],"tree_param":{"num_deleted":"0","num_feature":"9","num_nodes":"5","size_leaf_vector":"1"}},{"base_weights":[1.3942452E-1,5.9816074E-1,-4.884229E-1,-4.0881768E-2,6.4785737E-1,-5.2967054E-1,-5.3212155E-2,2.9099831E-2,6.7277804E-2,-2.3909677E-2,-5.4535903E-2,4.747815E-2,-4.0777367E-2],"categories":[],"categories_nodes":[],"categories_segments":[],"categories_sizes":[],"default_left":[0,0,0,0,0,0,0,0,0,0,0,0,0],"id":30,"left_children":[1,3,5,-1,7,9,11,-1,-1,-1,-1,-1,-1],"loss_changes":[2.5717976E1,2.840025E0,6.507435E-1,0E0,2.437706E-1,2.6581764E-2,1.01466E0,0E0,0E0,0E0,0E0,0E0,0E0],"parents":[2147483647,0,0,1,1,2,2,4,4,5,5,6,6],"right_children":[2,4,6,-1,8,10,12,-1,-1,-1,-1,-1,-1],"split_conditions":[4.33E1,1.48E1,1.97E1,-4.0881768E-2,1.68E1,4.44E1,1.97E2,2.9099831E-2,6.7277804E-2,-2.3909677E-2,-5.4535903E-2,4.747815E-2,-4.0777367E-2],"split_indices":[0,1,1,0,1,0,2,0,0,0,0,0,0],"split_type":[0,0,0,0,0,0,0,0,0,0,0,0,0],"sum_hessian":[8.7279076E1,5.0458725E1,3.6820347E1,2.033271E0,4.8425457E1,3.3434505E1,3.3858397E0,3.988459E0,4.4436996E1,2.544623E0,3.0889885E1,1.2240237E0,2.161816E0],"tree_param":{"num_deleted":"0","num_feature":"9","num_nodes":"13","size_leaf_vector":"1"}},{"base_weights":[-1.8723668E-1,-5.7162967E-2,2.6950866E-1,-4.6661913E-1,6.320742E-1,1.0126426E-2,-5.339184E-2,2.2260934E-2,6.787304E-2],"categories":[],"categories_nodes":[],"categories_segments":[],"categories_sizes":[],"default_left":[0,0,0,0,0,0,0,0,0],"id":31,"left_children":[1,-1,3,5,7,-1,-1,-1,-1],"loss_changes":[1.3673296E1,0E0,9.86815E0,5.284276E-1,3.161354E-1,0E0,0E0,0E0,0E0],"parents":[2147483647,0,0,2,2,3,3,4,4],"right_children":[2,-1,4,6,8,-1,-1,-1,-1],"split_conditions":[1E0,-5.7162967E-2,4.24E1,1.69E1,4.44E1,1.0126426E-2,-5.339184E-2,2.2260934E-2,6.787304E-2],"split_indices":[7,0,0,1,0,0,0,0,0],"split_type":[0,0,0,0,0,0,0,0,0],"sum_hessian":[7.600211E1,4.113322E1,3.4868893E1,1.1411924E1,2.3456968E1,1.1556503E0,1.0256274E1,2.989727E0,2.0467241E1],"tree_param":{"num_deleted":"0","num_feature":"9","num_nodes":"9","size_leaf_vector":"1"}},{"base_weights":[2.5537133E-2,-5.727275E-2,6.281791E-1,6.8381734E-2,-3.934843E-2],"categories":[],"categories_nodes":[],"categories_segments":[],"categories_sizes":[],"default_left":[0,0,0,0,0],"id":32,"left_children":[1,-1,3,-1,-1],"loss_changes":[3.0140057E1,0E0,2.6352406E0,0E0,0E0],"parents":[2147483647,0,0,2,2],"right_children":[2,-1,4,-1,-1],"split_conditions":[2.08E2,-5.727275E-2,1.75E1,6.8381734E-2,-3.934843E-2],"split_indices":[2,0,1,0,0],"split_type":[0,0,0,0,0],"sum_hessian":[8.159925E1,4.097325E1,4.0626003E1,3.884144E1,1.7845623E0],"tree_param":{"num_deleted":"0","num_feature":"9","num_nodes":"5","size_leaf_vector":"1"}},{"base_weights":[1.3493228E-1,6.2752926E-1,-4.0978163E-1,1.7871816E-1,6.63519E-2,-4.7946674E-1,5.349934E-2,5.1921833E-2,-4.7503438E-2,-5.6544222E-2,-1.8675253E-2],"categories":[],"categories_nodes":[],"categories_segments":[],"categories_sizes":[],"default_left":[0,0,0,0,0,0,0,0,0,0,0],"id":33,"left_children":[1,3,5,7,-1,9,-1,-1,-1,-1,-1],"loss_changes":[2.2645706E1,5.9552765E-1,2.9049978E0,1.2818921E0,0E0,8.5052013E-1,0E0,0E0,0E0,0E0,0E0],"parents":[2147483647,0,0,1,1,2,2,3,3,5,5],"right_children":[2,4,6,8,-1,10,-1,-1,-1,-1,-1],"split_conditions":[4.24E1,1.67E1,1E0,3.82E1,6.63519E-2,1.83E1,5.349934E-2,5.1921833E-2,-4.7503438E-2,-5.6544222E-2,-1.8675253E-2],"split_indices":[0,1,8,0,0,1,0,0,0,0,0],"split_type":[0,0,0,0,0,0,0,0,0,0,0],"sum_hessian":[8.243837E1,4.3210297E1,3.9228077E1,3.6506395E0,3.9559654E1,3.6992104E1,2.235972E0,2.5357227E0,1.1149169E0,2.7873446E1,9.118658E0],"tree_param":{"num_deleted":"0","num_feature":"9","num_nodes":"11","size_leaf_vector":"1"}},{"base_weights":[-1.8132329E-1,-5.6277186E-2,2.6245564E-1,-4.5216522E-1,6.078427E-1,9.936469E-3,-5.2620053E-2,6.756019E-2,2.7573133E-2],"categories":[],"categories_nodes":[],"categories_segments":[],"categories_sizes":[],"default_left":[0,0,0,0,0,0,0,0,0],"id":34,"left_children":[1,-1,3,5,7,-1,-1,-1,-1],"loss_changes":[1.2387157E1,0E0,8.692207E0,5.294323E-1,3.406992E-1,0E0,0E0,0E0,0E0],"parents":[2147483647,0,0,2,2,3,3,4,4],"right_children":[2,-1,4,6,8,-1,-1,-1,-1],"split_conditions":[1E0,-5.6277186E-2,4.24E1,3.25E3,4.075E3,9.936469E-3,-5.2620053E-2,6.756019E-2,2.7573133E-2],"split_indices":[7,0,0,3,3,0,0,0,0],"split_type":[0,0,0,0,0,0,0,0,0],"sum_hessian":[7.130352E1,3.8200382E1,3.3103134E1,1.0685407E1,2.2417728E1,1.2241213E0,9.461285E0,1.7759975E1,4.6577525E0],"tree_param":{"num_deleted":"0","num_feature":"9","num_nodes":"9","size_leaf_vector":"1"}},{"base_weights":[2.3878237E-2,-5.6384154E-2,6.0557306E-1,6.6031896E-2,-3.826743E-2],"categories":[],"categories_nodes":[],"categories_segments":[],"categories_sizes":[],"default_left":[0,0,0,0,0],"id":35,"left_children":[1,-1,3,-1,-1],"loss_changes":[2.6854147E1,0E0,2.387435E0,0E0,0E0],"parents":[2147483647,0,0,2,2],"right_children":[2,-1,4,-1,-1],"split_conditions":[2.08E2,-5.6384154E-2,1.75E1,6.6031896E-2,-3.826743E-2],"split_indices":[2,0,1,0,0],"split_type":[0,0,0,0,0],"sum_hessian":[7.655119E1,3.8093666E1,3.845753E1,3.6753338E1,1.7041925E0],"tree_param":{"num_deleted":"0","num_feature":"9","num_nodes":"5","size_leaf_vector":"1"}},{"base_weights":[1.3152975E-1,5.5529696E-1,-4.6391E-1,-3.7897E-2,6.012755E-1,-5.0916284E-1,-2.6405988E-2,2.4788927E-2,6.2781446E-2,-2.1518948E-2,-5.2594453E-2,4.6816878E-2,-3.8663827E-2],"categories":[],"categories_nodes":[],"categories_segments":[],"categories_sizes":[],"default_left":[0,0,0,0,0,0,0,0,0,0,0,0,0],"id":36,"left_children":[1,3,5,-1,7,9,11,-1,-1,-1,-1,-1,-1],"loss_changes":[2.0085499E1,2.2194443E0,6.441927E-1,0E0,2.6241875E-1,3.5062313E-2,9.2366034E-1,0E0,0E0,0E0,0E0,0E0,0E0],"parents":[2147483647,0,0,1,1,2,2,4,4,5,5,6,6],"right_children":[2,4,6,-1,8,10,12,-1,-1,-1,-1,-1,-1],"split_conditions":[4.33E1,1.48E1,1.97E1,-3.7897E-2,1.68E1,4.44E1,4.94E1,2.4788927E-2,6.2781446E-2,-2.1518948E-2,-5.2594453E-2,4.6816878E-2,-3.8663827E-2],"split_indices":[0,1,1,0,1,0,0,0,0,0,0,0,0],"split_type":[0,0,0,0,0,0,0,0,0,0,0,0,0],"sum_hessian":[7.757987E1,4.5362995E1,3.2216873E1,1.7880561E0,4.357494E1,2.9048481E1,3.1683931E0,3.7661653E0,3.9808777E1,2.3151767E0,2.6733305E1,1.2089524E0,1.9594408E0],"tree_param":{"num_deleted":"0","num_feature":"9","num_nodes":"13","size_leaf_vector":"1"}},{"base_weights":[-1.7545211E-1,-5.546623E-2,2.5524518E-1,-4.379878E-1,5.834249E-1,1.0175019E-2,-5.153648E-2,1.8027475E-2,6.353862E-2],"categories":[],"categories_nodes":[],"categories_segments":[],"categories_sizes":[],"default_left":[0,0,0,0,0,0,0,0,0],"id":37,"left_children":[1,-1,3,5,7,-1,-1,-1,-1],"loss_changes":[1.1223115E1,0E0,7.6387644E0,5.117662E-1,3.5584164E-1,0E0,0E0,0E0,0E0],"parents":[2147483647,0,0,2,2,3,3,4,4],"right_children":[2,-1,4,6,8,-1,-1,-1,-1],"split_conditions":[1E0,-5.546623E-2,4.24E1,3.25E3,4.44E1,1.0175019E-2,-5.153648E-2,1.8027475E-2,6.353862E-2],"split_indices":[7,0,0,3,0,0,0,0,0],"split_type":[0,0,0,0,0,0,0,0,0],"sum_hessian":[6.684972E1,3.539667E1,3.1453047E1,9.998354E0,2.1454695E1,1.2141494E0,8.7842045E0,2.959821E0,1.8494873E1],"tree_param":{"num_deleted":"0","num_feature":"9","num_nodes":"9","size_leaf_vector":"1"}},{"base_weights":[2.1621227E-2,-5.557858E-2,5.850782E-1,6.393074E-2,-3.7175354E-2],"categories":[],"categories_nodes":[],"categories_segments":[],"categories_sizes":[],"default_left":[0,0,0,0,0],"id":38,"left_children":[1,-1,3,-1,-1],"loss_changes":[2.3931494E1,0E0,2.168415E0,0E0,0E0],"parents":[2147483647,0,0,2,2],"right_children":[2,-1,4,-1,-1],"split_conditions":[2.08E2,-5.557858E-2,1.75E1,6.393074E-2,-3.7175354E-2],"split_indices":[2,0,1,0,0],"split_type":[0,0,0,0,0],"sum_hessian":[7.155802E1,3.5348244E1,3.6209778E1,3.4581684E1,1.6280965E0],"tree_param":{"num_deleted":"0","num_feature":"9","num_nodes":"5","size_leaf_vector":"1"}},{"base_weights":[1.2777954E-1,5.351778E-1,-4.5172822E-1,-3.658876E-2,5.797661E-1,-4.987677E-1,-1.5559622E-2,2.2597514E-2,6.076097E-2,-2.0515183E-2,-5.1625885E-2,4.5338485E-2,-3.7450317E-2],"categories":[],"categories_nodes":[],"categories_segments":[],"categories_sizes":[],"default_left":[0,0,0,0,0,0,0,0,0,0,0,0,0],"id":39,"left_children":[1,3,5,-1,7,9,11,-1,-1,-1,-1,-1,-1],"loss_changes":[1.7700207E1,1.9750862E0,6.296735E-1,0E0,2.7837753E-1,3.7947655E-2,8.526283E-1,0E0,0E0,0E0,0E0,0E0,0E0],"parents":[2147483647,0,0,1,1,2,2,4,4,5,5,6,6],"right_children":[2,4,6,-1,8,10,12,-1,-1,-1,-1,-1,-1],"split_conditions":[4.33E1,1.48E1,1.97E1,-3.658876E-2,1.68E1,4.44E1,1.97E2,2.2597514E-2,6.076097E-2,-2.0515183E-2,-5.1625885E-2,4.5338485E-2,-3.7450317E-2],"split_indices":[0,1,1,0,1,0,2,0,0,0,0,0,0],"split_type":[0,0,0,0,0,0,0,0,0,0,0,0,0],"sum_hessian":[7.294815E1,4.2879814E1,3.0068335E1,1.6820512E0,4.1197765E1,2.7011684E1,3.0566514E0,3.670817E0,3.7526947E1,2.2343037E0,2.477738E1,1.2111831E0,1.8454683E0],"tree_param":{"num_deleted":"0","num_feature":"9","num_nodes":"13","size_leaf_vector":"1"}},{"base_weights":[-1.7016637E-1,-5.4723572E-2,2.4959348E-1,-4.239056E-1,5.6387997E-1,1.229713E-2,-5.0301798E-2,6.367433E-2,2.2775829E-2],"categories":[],"categories_nodes":[],"categories_segments":[],"categories_sizes":[],"default_left":[0,0,0,0,0,0,0,0,0],"id":40,"left_children":[1,-1,3,5,7,-1,-1,-1,-1],"loss_changes":[1.0189749E1,0E0,6.746484E0,5.097538E-1,3.788538E-1,0E0,0E0,0E0,0E0],"parents":[2147483647,0,0,2,2,3,3,4,4],"right_children":[2,-1,4,6,8,-1,-1,-1,-1],"split_conditions":[1E0,-5.4723572E-2,4.24E1,1.69E1,4.075E3,1.229713E-2,-5.0301798E-2,6.367433E-2,2.2775829E-2],"split_indices":[7,0,0,1,3,0,0,0,0],"split_type":[0,0,0,0,0,0,0,0,0],"sum_hessian":[6.2515625E1,3.2772484E1,2.9743141E1,9.352484E0,2.0390657E1,1.1119007E0,8.240583E0,1.6022886E1,4.3677707E0],"tree_param":{"num_deleted":"0","num_feature":"9","num_nodes":"9","size_leaf_vector":"1"}},{"base_weights":[2.0046987E-2,-5.4834586E-2,5.6751627E-1,6.214393E-2,-3.6170997E-2],"categories":[],"categories_nodes":[],"categories_segments":[],"categories_sizes":[],"default_left":[0,0,0,0,0],"id":41,"left_children":[1,-1,3,-1,-1],"loss_changes":[2.1408745E1,0E0,1.9798441E0,0E0,0E0],"parents":[2147483647,0,0,2,2],"right_children":[2,-1,4,-1,-1],"split_conditions":[2.08E2,-5.4834586E-2,1.75E1,6.214393E-2,-3.6170997E-2],"split_indices":[2,0,1,0,0],"split_type":[0,0,0,0,0],"sum_hessian":[6.679905E1,3.2772465E1,3.4026585E1,3.2473385E1,1.5532E0],"tree_param":{"num_deleted":"0","num_feature":"9","num_nodes":"5","size_leaf_vector":"1"}},{"base_weights":[1.2436109E-1,5.71348E-1,-3.751281E-1,1.3699791E-1,6.092864E-2,-4.4599655E-1,4.8497807E-2,4.6577346E-2,-4.635108E-2,-5.4369736E-2,-1.414419E-2],"categories":[],"categories_nodes":[],"categories_segments":[],"categories_sizes":[],"default_left":[0,0,0,0,0,0,0,0,0,0,0],"id":42,"left_children":[1,3,5,7,-1,9,-1,-1,-1,-1,-1],"loss_changes":[1.5728332E1,5.27339E-1,2.253386E0,1.0584592E0,0E0,8.573165E-1,0E0,0E0,0E0,0E0,0E0],"parents":[2147483647,0,0,1,1,2,2,3,3,5,5],"right_children":[2,4,6,8,-1,10,-1,-1,-1,-1,-1],"split_conditions":[4.24E1,1.67E1,1E0,3.82E1,6.092864E-2,1.83E1,4.8497807E-2,4.6577346E-2,-4.635108E-2,-5.4369736E-2,-1.414419E-2],"split_indices":[0,1,8,0,0,1,0,0,0,0,0],"split_type":[0,0,0,0,0,0,0,0,0,0,0],"sum_hessian":[6.848691E1,3.606706E1,3.241985E1,3.2676246E0,3.2799435E1,3.0396769E1,2.0230787E0,2.2565455E0,1.0110791E0,2.2419422E1,7.9773474E0],"tree_param":{"num_deleted":"0","num_feature":"9","num_nodes":"11","size_leaf_vector":"1"}},{"base_weights":[-1.6495594E-1,-5.4039296E-2,2.4442932E-1,-4.9798295E-2,5.1245534E-1,1.3692667E-2,6.0023885E-2],"categories":[],"categories_nodes":[],"categories_segments":[],"categories_sizes":[],"default_left":[0,0,0,0,0,0,0],"id":43,"left_children":[1,-1,3,-1,5,-1,-1],"loss_changes":[9.265267E0,0E0,6.0486116E0,0E0,6.3924456E-1,0E0,0E0],"parents":[2147483647,0,0,2,2,4,4],"right_children":[2,-1,4,-1,6,-1,-1],"split_conditions":[1E0,-5.4039296E-2,4.09E1,-4.9798295E-2,4.44E1,1.3692667E-2,6.0023885E-2],"split_indices":[7,0,0,0,0,0,0],"split_type":[0,0,0,0,0,0,0],"sum_hessian":[5.8422737E1,3.0308008E1,2.8114729E1,7.2300525E0,2.0884676E1,4.442016E0,1.644266E1],"tree_param":{"num_deleted":"0","num_feature":"9","num_nodes":"7","size_leaf_vector":"1"}},{"base_weights":[1.8350225E-2,-5.414451E-2,5.51199E-1,6.056654E-2,-3.542107E-2],"categories":[],"categories_nodes":[],"categories_segments":[],"categories_sizes":[],"default_left":[0,0,0,0,0],"id":44,"left_children":[1,-1,3,-1,-1],"loss_changes":[1.9165344E1,0E0,1.8370237E0,0E0,0E0],"parents":[2147483647,0,0,2,2],"right_children":[2,-1,4,-1,-1],"split_conditions":[2.08E2,-5.414451E-2,1.75E1,6.056654E-2,-3.542107E-2],"split_indices":[2,0,1,0,0],"split_type":[0,0,0,0,0],"sum_hessian":[6.2250996E1,3.0350023E1,3.1900972E1,3.0403088E1,1.4978856E0],"tree_param":{"num_deleted":"0","num_feature":"9","num_nodes":"5","size_leaf_vector":"1"}},{"base_weights":[1.2187956E-1,4.7611722E-1,-4.76721E-1,-4.1553896E-2,5.495305E-1,-5.036148E-2,3.7449643E-3,1.8970368E-2,5.7926245E-2],"categories":[],"categories_nodes":[],"categories_segments":[],"categories_sizes":[],"default_left":[0,0,0,0,0,0,0,0,0],"id":45,"left_children":[1,3,5,-1,7,-1,-1,-1,-1],"loss_changes":[1.4032746E1,2.9385357E0,3.6047554E-1,0E0,3.039627E-1,0E0,0E0,0E0,0E0],"parents":[2147483647,0,0,1,1,2,2,4,4],"right_children":[2,4,6,-1,8,-1,-1,-1,-1],"split_conditions":[4.44E1,1.53E1,2E1,-4.1553896E-2,1.68E1,-5.036148E-2,3.7449643E-3,1.8970368E-2,5.7926245E-2],"split_indices":[0,1,1,0,1,0,0,0,0],"split_type":[0,0,0,0,0,0,0,0,0],"sum_hessian":[6.410717E1,4.0402523E1,2.3704643E1,2.71893E0,3.7683594E1,2.2545906E1,1.1587372E0,3.439381E0,3.4244213E1],"tree_param":{"num_deleted":"0","num_feature":"9","num_nodes":"9","size_leaf_vector":"1"}},{"base_weights":[-1.5997787E-1,-5.3398173E-2,2.3854297E-1,-4.879145E-2,4.9470878E-1,1.236359E-2,5.8610417E-2],"categories":[],"categories_nodes":[],"categories_segments":[],"categories_sizes":[],"default_left":[0,0,0,0,0,0,0],"id":46,"left_children":[1,-1,3,-1,5,-1,-1],"loss_changes":[8.409722E0,0E0,5.376357E0,0E0,6.3623047E-1,0E0,0E0],"parents":[2147483647,0,0,2,2,4,4],"right_children":[2,-1,4,-1,6,-1,-1],"split_conditions":[1E0,-5.3398173E-2,4.09E1,-4.879145E-2,4.44E1,1.236359E-2,5.8610417E-2],"split_indices":[7,0,0,0,0,0,0],"split_type":[0,0,0,0,0,0,0],"sum_hessian":[5.4568188E1,2.797464E1,2.659355E1,6.696981E0,1.9896568E1,4.3970275E0,1.5499541E1],"tree_param":{"num_deleted":"0","num_feature":"9","num_nodes":"7","size_leaf_vector":"1"}},{"base_weights":[1.6229423E-2,-5.3515118E-2,5.370436E-1,5.911414E-2,-3.422775E-2],"categories":[],"categories_nodes":[],"categories_segments":[],"categories_sizes":[],"default_left":[0,0,0,0,0],"id":47,"left_children":[1,-1,3,-1,-1],"loss_changes":[1.7175602E1,0E0,1.6647243E0,0E0,0E0],"parents":[2147483647,0,0,2,2],"right_children":[2,-1,4,-1,-1],"split_conditions":[2.08E2,-5.3515118E-2,1.75E1,5.911414E-2,-3.422775E-2],"split_indices":[2,0,1,0,0],"split_type":[0,0,0,0,0],"sum_hessian":[5.7809723E1,2.8067461E1,2.9742262E1,2.8327236E1,1.4150261E0],"tree_param":{"num_deleted":"0","num_feature":"9","num_nodes":"5","size_leaf_vector":"1"}},{"base_weights":[1.18968986E-1,4.608089E-1,-4.6712384E-1,-4.0344138E-2,5.3192556E-1,-4.9510565E-2,3.790995E-3,3.1653836E-2,5.9679754E-2],"categories":[],"categories_nodes":[],"categories_segments":[],"categories_sizes":[],"default_left":[0,0,0,0,0,0,0,0,0],"id":48,"left_children":[1,3,5,-1,7,-1,-1,-1,-1],"loss_changes":[1.2437854E1,2.6138334E0,3.4338427E-1,0E0,3.2107735E-1,0E0,0E0,0E0,0E0],"parents":[2147483647,0,0,1,1,2,2,4,4],"right_children":[2,4,6,-1,8,-1,-1,-1,-1],"split_conditions":[4.44E1,1.53E1,2E1,-4.0344138E-2,1.75E1,-4.9510565E-2,3.790995E-3,3.1653836E-2,5.9679754E-2],"split_indices":[0,1,1,0,1,0,0,0,0],"split_type":[0,0,0,0,0,0,0,0,0],"sum_hessian":[6.000626E1,3.803565E1,2.1970613E1,2.5365913E0,3.5499058E1,2.0835846E1,1.1347678E0,9.577932E0,2.5921124E1],"tree_param":{"num_deleted":"0","num_feature":"9","num_nodes":"9","size_leaf_vector":"1"}},{"base_weights":[-1.5513216E-1,-5.280515E-2,2.3431593E-1,-4.786099E-2,4.8129565E-1,5.740921E-2,1.1410482E-2],"categories":[],"categories_nodes":[],"categories_segments":[],"categories_sizes":[],"default_left":[0,0,0,0,0,0,0],"id":49,"left_children":[1,-1,3,-1,5,-1,-1],"loss_changes":[7.6608334E0,0E0,4.822196E0,0E0,6.1144733E-1,0E0,0E0],"parents":[2147483647,0,0,2,2,4,4],"right_children":[2,-1,4,-1,6,-1,-1],"split_conditions":[1E0,-5.280515E-2,4.09E1,-4.786099E-2,4.075E3,5.740921E-2,1.1410482E-2],"split_indices":[7,0,0,0,3,0,0],"split_type":[0,0,0,0,0,0,0],"sum_hessian":[5.0896725E1,2.5818298E1,2.5078428E1,6.21127E0,1.8867159E1,1.4611157E1,4.2560015E0],"tree_param":{"num_deleted":"0","num_feature":"9","num_nodes":"7","size_leaf_vector":"1"}},{"base_weights":[1.45087605E-2,-5.292623E-2,5.245851E-1,5.784254E-2,-3.3062756E-2],"categories":[],"categories_nodes":[],"categories_segments":[],"categories_sizes":[],"default_left":[0,0,0,0,0],"id":50,"left_children":[1,-1,3,-1,-1],"loss_changes":[1.543741E1,0E0,1.5129261E0,0E0,0E0],"parents":[2147483647,0,0,2,2],"right_children":[2,-1,4,-1,-1],"split_conditions":[2.08E2,-5.292623E-2,1.75E1,5.784254E-2,-3.3062756E-2],"split_indices":[2,0,1,0,0],"split_type":[0,0,0,0,0],"sum_hessian":[5.365643E1,2.5952229E1,2.7704199E1,2.6367847E1,1.3363515E0],"tree_param":{"num_deleted":"0","num_feature":"9","num_nodes":"5","size_leaf_vector":"1"}},{"base_weights":[1.1653338E-1,5.302863E-1,-3.4478742E-1,9.885136E-2,5.7167698E-2,-4.154473E-1,4.364929E-2,3.9577376E-2,-2.9788567E-2,-5.2737523E-2,-9.708955E-3],"categories":[],"categories_nodes":[],"categories_segments":[],"categories_sizes":[],"default_left":[0,0,0,0,0,0,0,0,0,0,0],"id":51,"left_children":[1,3,5,7,-1,9,-1,-1,-1,-1,-1],"loss_changes":[1.1097772E1,4.8886108E-1,1.7074275E0,5.752591E-1,0E0,8.7039423E-1,0E0,0E0,0E0,0E0,0E0],"parents":[2147483647,0,0,1,1,2,2,3,3,5,5],"right_children":[2,4,6,8,-1,10,-1,-1,-1,-1,-1],"split_conditions":[4.24E1,1.67E1,1E0,3.78E1,5.7167698E-2,1.83E1,4.364929E-2,3.9577376E-2,-2.9788567E-2,-5.2737523E-2,-9.708955E-3],"split_indices":[0,1,8,0,0,1,0,0,0,0,0],"split_type":[0,0,0,0,0,0,0,0,0,0,0],"sum_hessian":[5.6184334E1,2.954041E1,2.6643925E1,2.882541E0,2.665787E1,2.4863491E1,1.7804343E0,1.6500517E0,1.2324891E0,1.7910118E1,6.953374E0],"tree_param":{"num_deleted":"0","num_feature":"9","num_nodes":"11","size_leaf_vector":"1"}},{"base_weights":[-1.5024215E-1,-5.2245717E-2,2.2922678E-1,-4.6979558E-2,4.666876E-1,5.6110222E-2,1.0443197E-2],"categories":[],"categories_nodes":[],"categories_segments":[],"categories_sizes":[],"default_left":[0,0,0,0,0,0,0],"id":52,"left_children":[1,-1,3,-1,5,-1,-1],"loss_changes":[6.9765983E0,0E0,4.3248253E0,0E0,5.900078E-1,0E0,0E0],"parents":[2147483647,0,0,2,2,4,4],"right_children":[2,-1,4,-1,6,-1,-1],"split_conditions":[1E0,-5.2245717E-2,4.09E1,-4.6979558E-2,4.075E3,5.6110222E-2,1.0443197E-2],"split_indices":[7,0,0,0,3,0,0],"split_type":[0,0,0,0,0,0,0],"sum_hessian":[4.754603E1,2.3812202E1,2.3733824E1,5.770011E0,1.7963814E1,1.3814444E1,4.1493692E0],"tree_param":{"num_deleted":"0","num_feature":"9","num_nodes":"7","size_leaf_vector":"1"}},{"base_weights":[1.2403331E-2,-5.2372307E-2,5.125037E-1,5.669665E-2,-3.2171376E-2],"categories":[],"categories_nodes":[],"categories_segments":[],"categories_sizes":[],"default_left":[0,0,0,0,0],"id":53,"left_children":[1,-1,3,-1,-1],"loss_changes":[1.3881852E1,0E0,1.3988986E0,0E0,0E0],"parents":[2147483647,0,0,2,2],"right_children":[2,-1,4,-1,-1],"split_conditions":[2.08E2,-5.2372307E-2,1.75E1,5.669665E-2,-3.2171376E-2],"split_indices":[2,0,1,0,0],"split_type":[0,0,0,0,0],"sum_hessian":[4.9774258E1,2.3999092E1,2.5775167E1,2.4496264E1,1.2789049E0],"tree_param":{"num_deleted":"0","num_feature":"9","num_nodes":"5","size_leaf_vector":"1"}},{"base_weights":[1.1485458E-1,4.4022202E-1,-4.5114282E-1,-3.78851E-2,5.0743574E-1,-4.8140574E-2,3.8075882E-3,2.8421689E-2,5.7714343E-2],"categories":[],"categories_nodes":[],"categories_segments":[],"categories_sizes":[],"default_left":[0,0,0,0,0,0,0,0,0],"id":54,"left_children":[1,3,5,-1,7,-1,-1,-1,-1],"loss_changes":[1.0052391E1,2.0905914E0,3.1480742E-1,0E0,3.3847237E-1,0E0,0E0,0E0,0E0],"parents":[2147483647,0,0,1,1,2,2,4,4],"right_children":[2,4,6,-1,8,-1,-1,-1,-1],"split_conditions":[4.44E1,1.53E1,2E1,-3.78851E-2,1.75E1,-4.8140574E-2,3.8075882E-3,2.8421689E-2,5.7714343E-2],"split_indices":[0,1,1,0,1,0,0,0,0],"split_type":[0,0,0,0,0,0,0,0,0],"sum_hessian":[5.2507504E1,3.3482235E1,1.902527E1,2.187585E0,3.1294647E1,1.7931974E1,1.093296E0,8.655423E0,2.2639225E1],"tree_param":{"num_deleted":"0","num_feature":"9","num_nodes":"9","size_leaf_vector":"1"}},{"base_weights":[-1.454535E-1,-5.1712718E-2,2.2348563E-1,-4.603669E-2,4.4957405E-1,9.948175E-3,5.512411E-2],"categories":[],"categories_nodes":[],"categories_segments":[],"categories_sizes":[],"default_left":[0,0,0,0,0,0,0],"id":55,"left_children":[1,-1,3,-1,5,-1,-1],"loss_changes":[6.3461075E0,0E0,3.840422E0,0E0,5.917928E-1,0E0,0E0],"parents":[2147483647,0,0,2,2,4,4],"right_children":[2,-1,4,-1,6,-1,-1],"split_conditions":[1E0,-5.1712718E-2,4.09E1,-4.603669E-2,4.44E1,9.948175E-3,5.512411E-2],"split_indices":[7,0,0,0,0,0,0],"split_type":[0,0,0,0,0,0,0],"sum_hessian":[4.4436928E1,2.193634E1,2.250059E1,5.333142E0,1.7167448E1,4.3087378E0,1.2858709E1],"tree_param":{"num_deleted":"0","num_feature":"9","num_nodes":"7","size_leaf_vector":"1"}},{"base_weights":[9.844468E-3,-5.185005E-2,5.009527E-1,5.5632073E-2,-3.13379E-2],"categories":[],"categories_nodes":[],"categories_segments":[],"categories_sizes":[],"default_left":[0,0,0,0,0],"id":56,"left_children":[1,-1,3,-1,-1],"loss_changes":[1.2473131E1,0E0,1.2971668E0,0E0,0E0],"parents":[2147483647,0,0,2,2],"right_children":[2,-1,4,-1,-1],"split_conditions":[2.08E2,-5.185005E-2,1.75E1,5.5632073E-2,-3.13379E-2],"split_indices":[2,0,1,0,0],"split_type":[0,0,0,0,0],"sum_hessian":[4.6069683E1,2.21666E1,2.3903086E1,2.2678001E1,1.2250836E0],"tree_param":{"num_deleted":"0","num_feature":"9","num_nodes":"5","size_leaf_vector":"1"}},{"base_weights":[1.12411685E-1,4.2705125E-1,-4.4199225E-1,-3.6748122E-2,4.923933E-1,-4.734152E-2,3.8206242E-3,2.636055E-2,5.664E-2],"categories":[],"categories_nodes":[],"categories_segments":[],"categories_sizes":[],"default_left":[0,0,0,0,0,0,0,0,0],"id":57,"left_children":[1,3,5,-1,7,-1,-1,-1,-1],"loss_changes":[8.922652E0,1.8656292E0,2.9903388E-1,0E0,3.6561537E-1,0E0,0E0,0E0,0E0],"parents":[2147483647,0,0,1,1,2,2,4,4],"right_children":[2,4,6,-1,8,-1,-1,-1,-1],"split_conditions":[4.44E1,1.53E1,2E1,-3.6748122E-2,1.75E1,-4.734152E-2,3.8206242E-3,2.636055E-2,5.664E-2],"split_indices":[0,1,1,0,1,0,0,0,0],"split_type":[0,0,0,0,0,0,0,0,0],"sum_hessian":[4.906895E1,3.1449947E1,1.7619003E1,2.0385125E0,2.9411434E1,1.6550133E1,1.0688715E0,8.303502E0,2.1107933E1],"tree_param":{"num_deleted":"0","num_feature":"9","num_nodes":"9","size_leaf_vector":"1"}},{"base_weights":[-1.409595E-1,-5.120647E-2,2.1989492E-1,-4.518511E-2,4.3890956E-1,5.396256E-2,7.4373893E-3],"categories":[],"categories_nodes":[],"categories_segments":[],"categories_sizes":[],"default_left":[0,0,0,0,0,0,0],"id":58,"left_children":[1,-1,3,-1,5,-1,-1],"loss_changes":[5.7925897E0,0E0,3.465028E0,0E0,5.9326243E-1,0E0,0E0],"parents":[2147483647,0,0,2,2,4,4],"right_children":[2,-1,4,-1,6,-1,-1],"split_conditions":[1E0,-5.120647E-2,4.09E1,-4.518511E-2,4.075E3,5.396256E-2,7.4373893E-3],"split_indices":[7,0,0,0,3,0,0],"split_type":[0,0,0,0,0,0,0],"sum_hessian":[4.1414898E1,2.0210867E1,2.1204031E1,4.9521236E0,1.6251907E1,1.2357419E1,3.894489E0],"tree_param":{"num_deleted":"0","num_feature":"9","num_nodes":"7","size_leaf_vector":"1"}},{"base_weights":[8.031468E-3,-5.135208E-2,4.9140933E-1,5.4682042E-2,-3.0237246E-2],"categories":[],"categories_nodes":[],"categories_segments":[],"categories_sizes":[],"default_left":[0,0,0,0,0],"id":59,"left_children":[1,-1,3,-1,-1],"loss_changes":[1.1252786E1,0E0,1.1838775E0,0E0,0E0],"parents":[2147483647,0,0,2,2],"right_children":[2,-1,4,-1,-1],"split_conditions":[2.08E2,-5.135208E-2,1.75E1,5.4682042E-2,-3.0237246E-2],"split_indices":[2,0,1,0,0],"split_type":[0,0,0,0,0],"sum_hessian":[4.263403E1,2.047725E1,2.2156782E1,2.1001839E1,1.154943E0],"tree_param":{"num_deleted":"0","num_feature":"9","num_nodes":"5","size_leaf_vector":"1"}},{"base_weights":[1.1031514E-1,4.1598606E-1,-4.3339396E-1,-1.0891334E-1,5.182813E-1,-4.6584386E-2,3.6151384E-3,4.1149106E-2,-5.0193764E-2,3.0040516E-2,5.5693913E-2],"categories":[],"categories_nodes":[],"categories_segments":[],"categories_sizes":[],"default_left":[0,0,0,0,0,0,0,0,0,0,0],"id":60,"left_children":[1,3,5,7,9,-1,-1,-1,-1,-1,-1],"loss_changes":[7.974876E0,1.6958585E0,2.814703E-1,1.3940774E0,4.9372673E-2,0E0,0E0,0E0,0E0,0E0,0E0],"parents":[2147483647,0,0,1,1,2,2,3,3,4,4],"right_children":[2,4,6,8,10,-1,-1,-1,-1,-1,-1],"split_conditions":[4.44E1,1.68E1,2E1,3.96E1,1.75E1,-4.6584386E-2,3.6151384E-3,4.1149106E-2,-5.0193764E-2,3.0040516E-2,5.5693913E-2],"split_indices":[0,1,1,0,1,0,0,0,0,0,0],"split_type":[0,0,0,0,0,0,0,0,0,0,0],"sum_hessian":[4.5899975E1,2.9532076E1,1.6367897E1,4.806119E0,2.4725958E1,1.531722E1,1.0506775E0,2.0477293E0,2.7583897E0,5.0477357E0,1.9678223E1],"tree_param":{"num_deleted":"0","num_feature":"9","num_nodes":"11","size_leaf_vector":"1"}},{"base_weights":[-1.3627206E-1,-5.0721E-2,2.155555E-1,-4.4346426E-2,4.2653328E-1,5.2904792E-2,6.716346E-3],"categories":[],"categories_nodes":[],"categories_segments":[],"categories_sizes":[],"default_left":[0,0,0,0,0,0,0],"id":61,"left_children":[1,-1,3,-1,5,-1,-1],"loss_changes":[5.2888575E0,0E0,3.1187546E0,0E0,5.7125115E-1,0E0,0E0],"parents":[2147483647,0,0,2,2,4,4],"right_children":[2,-1,4,-1,6,-1,-1],"split_conditions":[1E0,-5.0721E-2,4.09E1,-4.4346426E-2,4.075E3,5.2904792E-2,6.716346E-3],"split_indices":[7,0,0,0,3,0,0],"split_type":[0,0,0,0,0,0,0],"sum_hessian":[3.868797E1,1.8617533E1,2.0070435E1,4.5999317E0,1.5470503E1,1.1669486E1,3.801017E0],"tree_param":{"num_deleted":"0","num_feature":"9","num_nodes":"7","size_leaf_vector":"1"}},{"base_weights":[5.7982355E-3,-5.0876092E-2,4.8164108E-1,5.380672E-2,-2.9435871E-2],"categories":[],"categories_nodes":[],"categories_segments":[],"categories_sizes":[],"default_left":[0,0,0,0,0],"id":62,"left_children":[1,-1,3,-1,-1],"loss_changes":[1.0151104E1,0E0,1.1012578E0,0E0,0E0],"parents":[2147483647,0,0,2,2],"right_children":[2,-1,4,-1,-1],"split_conditions":[2.08E2,-5.0876092E-2,1.75E1,5.380672E-2,-2.9435871E-2],"split_indices":[2,0,1,0,0],"split_type":[0,0,0,0,0],"sum_hessian":[3.94578E1,1.892443E1,2.053337E1,1.9427343E1,1.1060262E0],"tree_param":{"num_deleted":"0","num_feature":"9","num_nodes":"5","size_leaf_vector":"1"}},{"base_weights":[1.0881346E-1,4.0681803E-1,-4.248432E-1,-1.0786382E-1,5.078181E-1,-4.5829546E-2,3.405443E-3,3.9706968E-2,-4.8917234E-2,2.8605778E-2,5.480838E-2],"categories":[],"categories_nodes":[],"categories_segments":[],"categories_sizes":[],"default_left":[0,0,0,0,0,0,0,0,0,0,0],"id":63,"left_children":[1,3,5,7,9,-1,-1,-1,-1,-1,-1],"loss_changes":[7.1507716E0,1.5449162E0,2.644732E-1,1.2584443E0,5.875826E-2,0E0,0E0,0E0,0E0,0E0,0E0],"parents":[2147483647,0,0,1,1,2,2,3,3,4,4],"right_children":[2,4,6,8,10,-1,-1,-1,-1,-1,-1],"split_conditions":[4.44E1,1.68E1,2E1,3.96E1,1.75E1,-4.5829546E-2,3.405443E-3,3.9706968E-2,-4.8917234E-2,2.8605778E-2,5.480838E-2],"split_indices":[0,1,1,0,1,0,0,0,0,0,0],"split_type":[0,0,0,0,0,0,0,0,0,0,0],"sum_hessian":[4.2877537E1,2.7665977E1,1.5211558E1,4.5273395E0,2.3138638E1,1.4179247E1,1.0323112E0,1.9301183E0,2.5972214E0,4.8011146E0,1.8337523E1],"tree_param":{"num_deleted":"0","num_feature":"9","num_nodes":"11","size_leaf_vector":"1"}},{"base_weights":[-1.319922E-1,-5.024464E-2,2.1044463E-1,-4.3488372E-2,4.1309625E-1,5.1684286E-2,6.0598315E-3],"categories":[],"categories_nodes":[],"categories_segments":[],"categories_sizes":[],"default_left":[0,0,0,0,0,0,0],"id":64,"left_children":[1,-1,3,-1,5,-1,-1],"loss_changes":[4.816587E0,0E0,2.7954555E0,0E0,5.441084E-1,0E0,0E0],"parents":[2147483647,0,0,2,2,4,4],"right_children":[2,-1,4,-1,6,-1,-1],"split_conditions":[1E0,-5.024464E-2,4.09E1,-4.3488372E-2,4.075E3,5.1684286E-2,6.0598315E-3],"split_indices":[7,0,0,0,3,0,0],"split_type":[0,0,0,0,0,0,0],"sum_hessian":[3.613507E1,1.713301E1,1.9002062E1,4.2672787E0,1.4734783E1,1.1023992E1,3.7107913E0],"tree_param":{"num_deleted":"0","num_feature":"9","num_nodes":"7","size_leaf_vector":"1"}},{"base_weights":[3.3912922E-3,-5.0412793E-2,4.7221473E-1,5.298092E-2,-2.8661212E-2],"categories":[],"categories_nodes":[],"categories_segments":[],"categories_sizes":[],"default_left":[0,0,0,0,0],"id":65,"left_children":[1,-1,3,-1,-1],"loss_changes":[9.15419E0,0E0,1.0257268E0,0E0,0E0],"parents":[2147483647,0,0,2,2],"right_children":[2,-1,4,-1,-1],"split_conditions":[2.08E2,-5.0412793E-2,1.75E1,5.298092E-2,-2.8661212E-2],"split_indices":[2,0,1,0,0],"split_type":[0,0,0,0,0],"sum_hessian":[3.6472683E1,1.7477413E1,1.8995268E1,1.793576E1,1.0595071E0],"tree_param":{"num_deleted":"0","num_feature":"9","num_nodes":"5","size_leaf_vector":"1"}},{"base_weights":[1.0737448E-1,3.980424E-1,-4.1632292E-1,-1.06807075E-1,4.9778104E-1,-1.2307394E-1,-4.8586454E-2,3.8327802E-2,-4.764759E-2,2.7221108E-2,5.397166E-2,-3.6208574E-2,3.1686615E-2],"categories":[],"categories_nodes":[],"categories_segments":[],"categories_sizes":[],"default_left":[0,0,0,0,0,0,0,0,0,0,0,0,0],"id":66,"left_children":[1,3,5,7,9,11,-1,-1,-1,-1,-1,-1,-1],"loss_changes":[6.416399E0,1.408556E0,2.4905896E-1,1.1362879E0,6.737423E-2,5.6081986E-1,0E0,0E0,0E0,0E0,0E0,0E0,0E0],"parents":[2147483647,0,0,1,1,2,2,3,3,4,4,5,5],"right_children":[2,4,6,8,10,12,-1,-1,-1,-1,-1,-1,-1],"split_conditions":[4.44E1,1.68E1,4.6E1,3.96E1,1.75E1,1.79E1,-4.8586454E-2,3.8327802E-2,-4.764759E-2,2.7221108E-2,5.397166E-2,-3.6208574E-2,3.1686615E-2],"split_indices":[0,1,0,0,1,1,0,0,0,0,0,0,0],"split_type":[0,0,0,0,0,0,0,0,0,0,0,0,0],"sum_hessian":[4.0062943E1,2.5917746E1,1.4145198E1,4.2639475E0,2.16538E1,3.2423537E0,1.0902843E1,1.8175426E0,2.4464047E0,4.5689206E0,1.7084879E1,2.2156146E0,1.0267391E0],"tree_param":{"num_deleted":"0","num_feature":"9","num_nodes":"13","size_leaf_vector":"1"}},{"base_weights":[-1.277437E-1,-4.9780462E-2,2.0550431E-1,-4.263557E-2,4.0021136E-1,5.0510194E-2,5.464339E-3],"categories":[],"categories_nodes":[],"categories_segments":[],"categories_sizes":[],"default_left":[0,0,0,0,0,0,0],"id":67,"left_children":[1,-1,3,-1,5,-1,-1],"loss_changes":[4.3898516E0,0E0,2.508311E0,0E0,5.1759195E-1,0E0,0E0],"parents":[2147483647,0,0,2,2,4,4],"right_children":[2,-1,4,-1,6,-1,-1],"split_conditions":[1E0,-4.9780462E-2,4.09E1,-4.263557E-2,4.075E3,5.0510194E-2,5.464339E-3],"split_indices":[7,0,0,0,3,0,0],"split_type":[0,0,0,0,0,0,0],"sum_hessian":[3.3767105E1,1.5765853E1,1.8001253E1,3.9601412E0,1.4041113E1,1.041744E1,3.6236727E0],"tree_param":{"num_deleted":"0","num_feature":"9","num_nodes":"7","size_leaf_vector":"1"}},{"base_weights":[9.2698075E-4,-4.9963605E-2,4.63217E-1,5.220852E-2,-2.7913017E-2],"categories":[],"categories_nodes":[],"categories_segments":[],"categories_sizes":[],"default_left":[0,0,0,0,0],"id":68,"left_children":[1,-1,3,-1,-1],"loss_changes":[8.262263E0,0E0,9.568553E-1,0E0,0E0],"parents":[2147483647,0,0,2,2],"right_children":[2,-1,4,-1,-1],"split_conditions":[2.08E2,-4.9963605E-2,1.75E1,5.220852E-2,-2.7913017E-2],"split_indices":[2,0,1,0,0],"split_type":[0,0,0,0,0],"sum_hessian":[3.3704582E1,1.6143633E1,1.756095E1,1.6545591E1,1.0153567E0],"tree_param":{"num_deleted":"0","num_feature":"9","num_nodes":"5","size_leaf_vector":"1"}},{"base_weights":[1.0594252E-1,3.895957E-1,-4.0951714E-1,-1.0572754E-1,4.8808628E-1,-1.1561281E-1,-4.8026826E-2,3.700419E-2,-4.6385426E-2,2.588427E-2,5.317386E-2,-3.5207625E-2,3.0281628E-2],"categories":[],"categories_nodes":[],"categories_segments":[],"categories_sizes":[],"default_left":[0,0,0,0,0,0,0,0,0,0,0,0,0],"id":69,"left_children":[1,3,5,7,9,11,-1,-1,-1,-1,-1,-1,-1],"loss_changes":[5.7746224E0,1.2850957E0,2.3807287E-1,1.0262406E0,7.520008E-2,5.0797784E-1,0E0,0E0,0E0,0E0,0E0,0E0,0E0],"parents":[2147483647,0,0,1,1,2,2,3,3,4,4,5,5],"right_children":[2,4,6,8,10,12,-1,-1,-1,-1,-1,-1,-1],"split_conditions":[4.44E1,1.68E1,4.6E1,3.96E1,1.75E1,1.79E1,-4.8026826E-2,3.700419E-2,-4.6385426E-2,2.588427E-2,5.317386E-2,-3.5207625E-2,3.0281628E-2],"split_indices":[0,1,0,0,1,1,0,0,0,0,0,0,0],"split_type":[0,0,0,0,0,0,0,0,0,0,0,0,0],"sum_hessian":[3.740373E1,2.42844E1,1.3119327E1,4.0156493E0,2.0268751E1,3.0565042E0,1.0062822E1,1.7102802E0,2.3053691E0,4.3506413E0,1.591811E1,2.0542045E0,1.0022997E0],"tree_param":{"num_deleted":"0","num_feature":"9","num_nodes":"13","size_leaf_vector":"1"}},{"base_weights":[-1.2373997E-1,-4.9299113E-2,2.0014195E-1,-4.178631E-2,3.8737205E-1,7.610521E-3,5.0720293E-2],"categories":[],"categories_nodes":[],"categories_segments":[],"categories_sizes":[],"default_left":[0,0,0,0,0,0,0],"id":70,"left_children":[1,-1,3,-1,5,-1,-1],"loss_changes":[3.9900787E0,0E0,2.2498913E0,0E0,4.973364E-1,0E0,0E0],"parents":[2147483647,0,0,2,2,4,4],"right_children":[2,-1,4,-1,6,-1,-1],"split_conditions":[1E0,-4.9299113E-2,4.09E1,-4.178631E-2,4.44E1,7.610521E-3,5.0720293E-2],"split_indices":[7,0,0,0,0,0,0],"split_type":[0,0,0,0,0,0,0],"sum_hessian":[3.1538568E1,1.4493124E1,1.7045444E1,3.676923E0,1.3368523E1,4.1705112E0,9.198011E0],"tree_param":{"num_deleted":"0","num_feature":"9","num_nodes":"7","size_leaf_vector":"1"}},{"base_weights":[-1.315516E-3,-4.9500555E-2,4.5448452E-1,5.1415056E-2,-1.5953628E-2],"categories":[],"categories_nodes":[],"categories_segments":[],"categories_sizes":[],"default_left":[0,0,0,0,0],"id":71,"left_children":[1,-1,3,-1,-1],"loss_changes":[7.4542456E0,0E0,7.1310925E-1,0E0,0E0],"parents":[2147483647,0,0,2,2],"right_children":[2,-1,4,-1,-1],"split_conditions":[2.08E2,-4.9500555E-2,1.71E1,5.1415056E-2,-1.5953628E-2],"split_indices":[2,0,1,0,0],"split_type":[0,0,0,0,0],"sum_hessian":[3.1126686E1,1.4900987E1,1.6225698E1,1.4936892E1,1.2888081E0],"tree_param":{"num_deleted":"0","num_feature":"9","num_nodes":"5","size_leaf_vector":"1"}},{"base_weights":[1.0395392E-1,4.6449438E-1,-2.8456944E-1,2.8999606E-3,5.1643856E-2,-4.684364E-1,7.0115075E-2,-4.9150493E-2,-1.2496685E-2,5.646735E-2,-4.0481236E-2],"categories":[],"categories_nodes":[],"categories_segments":[],"categories_sizes":[],"default_left":[0,0,0,0,0,0,0,0,0,0,0],"id":72,"left_children":[1,3,5,-1,-1,7,9,-1,-1,-1,-1],"loss_changes":[5.161709E0,4.1489983E-1,1.2003183E0,0E0,0E0,3.3026457E-2,1.8684511E0,0E0,0E0,0E0,0E0],"parents":[2147483647,0,0,1,1,2,2,5,5,6,6],"right_children":[2,4,6,-1,-1,8,10,-1,-1,-1,-1],"split_conditions":[4.24E1,1.67E1,1.83E1,2.8999606E-3,5.1643856E-2,1.8E1,4.6E1,-4.9150493E-2,-1.2496685E-2,5.646735E-2,-4.0481236E-2],"split_indices":[0,1,1,0,0,1,0,0,0,0,0],"split_type":[0,0,0,0,0,0,0,0,0,0,0],"sum_hessian":[3.4905094E1,1.8003103E1,1.690199E1,2.0845673E0,1.5918535E1,1.092026E1,5.98173E0,9.829106E0,1.0911543E0,2.8377326E0,3.1439974E0],"tree_param":{"num_deleted":"0","num_feature":"9","num_nodes":"11","size_leaf_vector":"1"}},{"base_weights":[-1.1991727E-1,-4.8825048E-2,1.9621E-1,-4.093912E-2,3.7757948E-1,4.8812106E-2,3.137779E-3],"categories":[],"categories_nodes":[],"categories_segments":[],"categories_sizes":[],"default_left":[0,0,0,0,0,0,0],"id":73,"left_children":[1,-1,3,-1,5,-1,-1],"loss_changes":[3.6369922E0,0E0,2.0305166E0,0E0,5.075722E-1,0E0,0E0],"parents":[2147483647,0,0,2,2,4,4],"right_children":[2,-1,4,-1,6,-1,-1],"split_conditions":[1E0,-4.8825048E-2,4.09E1,-4.093912E-2,4.075E3,4.8812106E-2,3.137779E-3],"split_indices":[7,0,0,0,3,0,0],"split_type":[0,0,0,0,0,0,0],"sum_hessian":[2.9412123E1,1.33329115E1,1.607921E1,3.4159548E0,1.2663256E1,9.287758E0,3.375498E0],"tree_param":{"num_deleted":"0","num_feature":"9","num_nodes":"7","size_leaf_vector":"1"}},{"base_weights":[-2.8757777E-3,-4.9039625E-2,4.466894E-1,5.071667E-2,-1.527294E-2],"categories":[],"categories_nodes":[],"categories_segments":[],"categories_sizes":[],"default_left":[0,0,0,0,0],"id":74,"left_children":[1,-1,3,-1,-1],"loss_changes":[6.737934E0,0E0,6.573801E-1,0E0,0E0],"parents":[2147483647,0,0,2,2],"right_children":[2,-1,4,-1,-1],"split_conditions":[2.08E2,-4.9039625E-2,1.71E1,5.071667E-2,-1.527294E-2],"split_indices":[2,0,1,0,0],"split_type":[0,0,0,0,0],"sum_hessian":[2.8743183E1,1.3745918E1,1.4997264E1,1.3762611E1,1.2346522E0],"tree_param":{"num_deleted":"0","num_feature":"9","num_nodes":"5","size_leaf_vector":"1"}},{"base_weights":[1.02575526E-1,3.7271821E-1,-3.9715496E-1,-1.0506058E-1,4.7040683E-1,-1.0398687E-1,-4.6892192E-2,3.4843545E-2,-4.4691917E-2,2.3174426E-2,5.1710874E-2,-3.258563E-2,2.426133E-2],"categories":[],"categories_nodes":[],"categories_segments":[],"categories_sizes":[],"default_left":[0,0,0,0,0,0,0,0,0,0,0,0,0],"id":75,"left_children":[1,3,5,7,9,11,-1,-1,-1,-1,-1,-1,-1],"loss_changes":[4.6792893E0,1.0903976E0,2.0922649E-1,8.694167E-1,8.859062E-2,3.6330536E-1,0E0,0E0,0E0,0E0,0E0,0E0,0E0],"parents":[2147483647,0,0,1,1,2,2,3,3,4,4,5,5],"right_children":[2,4,6,8,10,12,-1,-1,-1,-1,-1,-1,-1],"split_conditions":[4.44E1,1.68E1,4.6E1,3.96E1,1.75E1,1.75E1,-4.6892192E-2,3.4843545E-2,-4.4691917E-2,2.3174426E-2,5.1710874E-2,-3.258563E-2,2.426133E-2],"split_indices":[0,1,0,0,1,1,0,0,0,0,0,0,0],"split_type":[0,0,0,0,0,0,0,0,0,0,0,0,0],"sum_hessian":[3.2565273E1,2.1303343E1,1.126193E1,3.6035433E0,1.7699799E1,2.696338E0,8.565593E0,1.5406024E0,2.0629406E0,3.8724546E0,1.3827344E1,1.6804682E0,1.0158697E0],"tree_param":{"num_deleted":"0","num_feature":"9","num_nodes":"13","size_leaf_vector":"1"}},{"base_weights":[-1.159225E-1,-4.8344772E-2,1.9163962E-1,-4.0006816E-2,3.6510715E-1,4.7604844E-2,2.8389355E-3],"categories":[],"categories_nodes":[],"categories_segments":[],"categories_sizes":[],"default_left":[0,0,0,0,0,0,0],"id":76,"left_children":[1,-1,3,-1,5,-1,-1],"loss_changes":[3.313288E0,0E0,1.8116894E0,0E0,4.7478318E-1,0E0,0E0],"parents":[2147483647,0,0,2,2,4,4],"right_children":[2,-1,4,-1,6,-1,-1],"split_conditions":[1E0,-4.8344772E-2,4.09E1,-4.0006816E-2,4.075E3,4.7604844E-2,2.8389355E-3],"split_indices":[7,0,0,0,3,0,0],"split_type":[0,0,0,0,0,0,0],"sum_hessian":[2.7491955E1,1.2264485E1,1.522747E1,3.155971E0,1.2071499E1,8.768632E0,3.3028667E0],"tree_param":{"num_deleted":"0","num_feature":"9","num_nodes":"7","size_leaf_vector":"1"}},{"base_weights":[-5.0882287E-3,-4.856872E-2,4.371982E-1,5.0038684E-2,-1.5192504E-2],"categories":[],"categories_nodes":[],"categories_segments":[],"categories_sizes":[],"default_left":[0,0,0,0,0],"id":77,"left_children":[1,-1,3,-1,-1],"loss_changes":[6.0660095E0,0E0,6.294651E-1,0E0,0E0],"parents":[2147483647,0,0,2,2],"right_children":[2,-1,4,-1,-1],"split_conditions":[2.08E2,-4.856872E-2,1.71E1,5.0038684E-2,-1.5192504E-2],"split_indices":[2,0,1,0,0],"split_type":[0,0,0,0,0],"sum_hessian":[2.6538584E1,1.2671405E1,1.386718E1,1.2659917E1,1.2072625E0],"tree_param":{"num_deleted":"0","num_feature":"9","num_nodes":"5","size_leaf_vector":"1"}},{"base_weights":[1.0102134E-1,3.6499324E-1,-3.908021E-1,-1.03976764E-1,4.6142507E-1,-9.869169E-2,-4.6338197E-2,3.364738E-2,-4.345035E-2,2.1987658E-2,5.098278E-2,1.9795137E-2,-3.0902518E-2],"categories":[],"categories_nodes":[],"categories_segments":[],"categories_sizes":[],"default_left":[0,0,0,0,0,0,0,0,0,0,0,0,0],"id":78,"left_children":[1,3,5,7,9,11,-1,-1,-1,-1,-1,-1,-1],"loss_changes":[4.2274446E0,9.972837E-1,1.9748783E-1,7.8621185E-1,9.361601E-2,2.829035E-1,0E0,0E0,0E0,0E0,0E0,0E0,0E0],"parents":[2147483647,0,0,1,1,2,2,3,3,4,4,5,5],"right_children":[2,4,6,8,10,12,-1,-1,-1,-1,-1,-1,-1],"split_conditions":[4.44E1,1.68E1,4.6E1,3.96E1,1.75E1,1E0,-4.6338197E-2,3.364738E-2,-4.345035E-2,2.1987658E-2,5.098278E-2,1.9795137E-2,-3.0902518E-2],"split_indices":[0,1,0,0,1,4,0,0,0,0,0,0,0],"split_type":[0,0,0,0,0,0,0,0,0,0,0,0,0],"sum_hessian":[3.04633E1,1.9991385E1,1.0471916E1,3.3962755E0,1.659511E1,2.5537338E0,7.9181824E0,1.4483082E0,1.9479672E0,3.6955445E0,1.2899565E1,1.0839118E0,1.4698222E0],"tree_param":{"num_deleted":"0","num_feature":"9","num_nodes":"13","size_leaf_vector":"1"}},{"base_weights":[-1.1190935E-1,-4.7871526E-2,1.8687834E-1,-1.5426655E-1,4.850543E-2,-4.9509358E-2,1.6788103E-2],"categories":[],"categories_nodes":[],"categories_segments":[],"categories_sizes":[],"default_left":[0,0,0,0,0,0,0],"id":79,"left_children":[1,-1,3,5,-1,-1,-1],"loss_changes":[3.0209708E0,0E0,1.6474346E0,9.581029E-1,0E0,0E0,0E0],"parents":[2147483647,0,0,2,2,3,3],"right_children":[2,-1,4,6,-1,-1,-1],"split_conditions":[1E0,-4.7871526E-2,4.44E1,1E0,4.850543E-2,-4.9509358E-2,1.6788103E-2],"split_indices":[7,0,0,4,0,0,0],"split_type":[0,0,0,0,0,0,0],"sum_hessian":[2.5748055E1,1.128808E1,1.4459974E1,6.969155E0,7.4908195E0,3.125535E0,3.84362E0],"tree_param":{"num_deleted":"0","num_feature":"9","num_nodes":"7","size_leaf_vector":"1"}},{"base_weights":[-7.247911E-3,-4.811686E-2,4.2866176E-1,4.939047E-2,-1.4869824E-2],"categories":[],"categories_nodes":[],"categories_segments":[],"categories_sizes":[],"default_left":[0,0,0,0,0],"id":80,"left_children":[1,-1,3,-1,-1],"loss_changes":[5.4823847E0,0E0,5.944803E-1,0E0,0E0],"parents":[2147483647,0,0,2,2],"right_children":[2,-1,4,-1,-1],"split_conditions":[2.08E2,-4.811686E-2,1.71E1,4.939047E-2,-1.4869824E-2],"split_indices":[2,0,1,0,0],"split_type":[0,0,0,0,0],"sum_hessian":[2.4539541E1,1.1707418E1,1.2832123E1,1.1659159E1,1.1729639E0],"tree_param":{"num_deleted":"0","num_feature":"9","num_nodes":"5","size_leaf_vector":"1"}},{"base_weights":[9.876365E-2,4.4188088E-1,-2.6489964E-1,9.2194194E-4,4.9910285E-2,-4.541363E-2,8.2053065E-2,5.1584214E-2,-3.783753E-2],"categories":[],"categories_nodes":[],"categories_segments":[],"categories_sizes":[],"default_left":[0,0,0,0,0,0,0,0,0],"id":81,"left_children":[1,3,5,-1,-1,-1,7,-1,-1],"loss_changes":[3.7991872E0,3.8058686E-1,1.0188814E0,0E0,0E0,0E0,1.418235E0,0E0,0E0],"parents":[2147483647,0,0,1,1,2,2,6,6],"right_children":[2,4,6,-1,-1,-1,8,-1,-1],"split_conditions":[4.24E1,1.67E1,1.83E1,9.2194194E-4,4.9910285E-2,-4.541363E-2,4.6E1,5.1584214E-2,-3.783753E-2],"split_indices":[0,1,1,0,0,0,0,0,0],"split_type":[0,0,0,0,0,0,0,0,0],"sum_hessian":[2.8509203E1,1.4558314E1,1.3950889E1,1.8361436E0,1.2722171E1,8.82732E0,5.123568E0,2.5761323E0,2.5474358E0],"tree_param":{"num_deleted":"0","num_feature":"9","num_nodes":"9","size_leaf_vector":"1"}},{"base_weights":[-1.0815547E-1,-4.7396015E-2,1.8300448E-1,-3.865071E-2,3.5002318E-1,4.6346508E-2,1.7988151E-3],"categories":[],"categories_nodes":[],"categories_segments":[],"categories_sizes":[],"default_left":[0,0,0,0,0,0,0],"id":82,"left_children":[1,-1,3,-1,5,-1,-1],"loss_changes":[2.7579534E0,0E0,1.5322303E0,0E0,4.3917012E-1,0E0,0E0],"parents":[2147483647,0,0,2,2,4,4],"right_children":[2,-1,4,-1,6,-1,-1],"split_conditions":[1E0,-4.7396015E-2,4.09E1,-3.865071E-2,4.075E3,4.6346508E-2,1.7988151E-3],"split_indices":[7,0,0,0,3,0,0],"split_type":[0,0,0,0,0,0,0],"sum_hessian":[2.4080042E1,1.0393777E1,1.3686265E1,2.8055515E0,1.0880713E1,7.814878E0,3.065835E0],"tree_param":{"num_deleted":"0","num_feature":"9","num_nodes":"7","size_leaf_vector":"1"}},{"base_weights":[-8.523562E-3,-4.7660053E-2,4.2161614E-1,4.8765022E-2,-1.411098E-2],"categories":[],"categories_nodes":[],"categories_segments":[],"categories_sizes":[],"default_left":[0,0,0,0,0],"id":83,"left_children":[1,-1,3,-1,-1],"loss_changes":[4.9698453E0,0E0,5.4719114E-1,0E0,0E0],"parents":[2147483647,0,0,2,2],"right_children":[2,-1,4,-1,-1],"split_conditions":[2.08E2,-4.7660053E-2,1.71E1,4.8765022E-2,-1.411098E-2],"split_indices":[2,0,1,0,0],"split_type":[0,0,0,0,0],"sum_hessian":[2.2685997E1,1.0812187E1,1.1873809E1,1.0746192E1,1.1276169E0],"tree_param":{"num_deleted":"0","num_feature":"9","num_nodes":"5","size_leaf_vector":"1"}},{"base_weights":[9.770435E-2,3.4910548E-1,-3.7897593E-1,-1.015382E-1,4.44384E-1,-9.0273544E-2,-4.5178548E-2,3.1793788E-2,-4.16811E-2,4.918148E-2,1.8585218E-2,1.7925875E-2,-2.8861463E-2],"categories":[],"categories_nodes":[],"categories_segments":[],"categories_sizes":[],"default_left":[0,0,0,0,0,0,0,0,0,0,0,0,0],"id":84,"left_children":[1,3,5,7,9,11,-1,-1,-1,-1,-1,-1,-1],"loss_changes":[3.4442654E0,8.443737E-1,1.6988826E-1,6.6982025E-1,9.929824E-2,2.264546E-1,0E0,0E0,0E0,0E0,0E0,0E0,0E0],"parents":[2147483647,0,0,1,1,2,2,3,3,4,4,5,5],"right_children":[2,4,6,8,10,12,-1,-1,-1,-1,-1,-1,-1],"split_conditions":[4.44E1,1.68E1,4.6E1,3.96E1,4.24E1,1E0,-4.5178548E-2,3.1793788E-2,-4.16811E-2,4.918148E-2,1.8585218E-2,1.7925875E-2,-2.8861463E-2],"split_indices":[0,1,0,0,0,4,0,0,0,0,0,0,0],"split_type":[0,0,0,0,0,0,0,0,0,0,0,0,0],"sum_hessian":[2.6637009E1,1.7614668E1,9.022342E0,3.0627804E0,1.4551887E1,2.2682395E0,6.754102E0,1.3105787E0,1.7522017E0,1.1533575E1,3.018311E0,1.0023383E0,1.2659012E0],"tree_param":{"num_deleted":"0","num_feature":"9","num_nodes":"13","size_leaf_vector":"1"}},{"base_weights":[-1.0470685E-1,-4.6905544E-2,1.7842066E-1,-3.7705164E-2,3.3825293E-1,4.516875E-2,1.5905502E-3],"categories":[],"categories_nodes":[],"categories_segments":[],"categories_sizes":[],"default_left":[0,0,0,0,0,0,0],"id":85,"left_children":[1,-1,3,-1,5,-1,-1],"loss_changes":[2.512455E0,0E0,1.3681251E0,0E0,4.0886223E-1,0E0,0E0],"parents":[2147483647,0,0,2,2,4,4],"right_children":[2,-1,4,-1,6,-1,-1],"split_conditions":[1E0,-4.6905544E-2,4.09E1,-3.7705164E-2,4.075E3,4.516875E-2,1.5905502E-3],"split_indices":[7,0,0,0,3,0,0],"split_type":[0,0,0,0,0,0,0],"sum_hessian":[2.2544338E1,9.571001E0,1.2973337E1,2.595172E0,1.0378165E1,7.379916E0,2.9982483E0],"tree_param":{"num_deleted":"0","num_feature":"9","num_nodes":"7","size_leaf_vector":"1"}},{"base_weights":[-1.0694183E-2,-4.7182225E-2,4.1203758E-1,4.814088E-2,-1.4162864E-2],"categories":[],"categories_nodes":[],"categories_segments":[],"categories_sizes":[],"default_left":[0,0,0,0,0],"id":86,"left_children":[1,-1,3,-1,-1],"loss_changes":[4.477957E0,0E0,5.290189E-1,0E0,0E0],"parents":[2147483647,0,0,2,2],"right_children":[2,-1,4,-1,-1],"split_conditions":[2.08E2,-4.7182225E-2,1.71E1,4.814088E-2,-1.4162864E-2],"split_indices":[2,0,1,0,0],"split_type":[0,0,0,0,0],"sum_hessian":[2.0974413E1,9.976085E0,1.0998328E1,9.889711E0,1.1086165E0],"tree_param":{"num_deleted":"0","num_feature":"9","num_nodes":"5","size_leaf_vector":"1"}},{"base_weights":[9.6260756E-2,3.426549E-1,-3.7279356E-1,-1.0036778E-1,4.370163E-1,-8.6342394E-2,-4.4606294E-2,3.0697823E-2,-4.046909E-2,1.8205341E-2,4.9017247E-2,-2.7426407E-2,1.5628627E-2],"categories":[],"categories_nodes":[],"categories_segments":[],"categories_sizes":[],"default_left":[0,0,0,0,0,0,0,0,0,0,0,0,0],"id":87,"left_children":[1,3,5,7,9,11,-1,-1,-1,-1,-1,-1,-1],"loss_changes":[3.1253414E0,7.765074E-1,1.5901387E-1,6.065314E-1,1.0910869E-1,1.86807E-1,0E0,0E0,0E0,0E0,0E0,0E0,0E0],"parents":[2147483647,0,0,1,1,2,2,3,3,4,4,5,5],"right_children":[2,4,6,8,10,12,-1,-1,-1,-1,-1,-1,-1],"split_conditions":[4.44E1,1.68E1,4.6E1,3.96E1,1.75E1,1.71E1,-4.4606294E-2,3.0697823E-2,-4.046909E-2,1.8205341E-2,4.9017247E-2,-2.7426407E-2,1.5628627E-2],"split_indices":[0,1,0,0,1,1,0,0,0,0,0,0,0],"split_type":[0,0,0,0,0,0,0,0,0,0,0,0,0],"sum_hessian":[2.493704E1,1.6525616E1,8.411426E0,2.890621E0,1.36349945E1,2.156985E0,6.254441E0,1.2323533E0,1.6582677E0,3.1156578E0,1.0519336E1,1.1420523E0,1.0149326E0],"tree_param":{"num_deleted":"0","num_feature":"9","num_nodes":"13","size_leaf_vector":"1"}},{"base_weights":[-1.01395406E-1,-4.6413884E-2,1.7339215E-1,-1.3664071E-1,4.6445142E-2,-4.7361888E-2,1.7651575E-2],"categories":[],"categories_nodes":[],"categories_segments":[],"categories_sizes":[],"default_left":[0,0,0,0,0,0,0],"id":88,"left_children":[1,-1,3,5,-1,-1,-1],"loss_changes":[2.2874324E0,0E0,1.2659589E0,8.4606254E-1,0E0,0E0,0E0],"parents":[2147483647,0,0,2,2,3,3],"right_children":[2,-1,4,6,-1,-1,-1],"split_conditions":[1E0,-4.6413884E-2,4.44E1,1E0,4.6445142E-2,-4.7361888E-2,1.7651575E-2],"split_indices":[7,0,0,4,0,0,0],"split_type":[0,0,0,0,0,0,0],"sum_hessian":[2.1140976E1,8.815142E0,1.2325835E1,6.225281E0,6.100554E0,2.7517755E0,3.4735053E0],"tree_param":{"num_deleted":"0","num_feature":"9","num_nodes":"7","size_leaf_vector":"1"}},{"base_weights":[-1.2327925E-2,-4.6712365E-2,4.0345463E-1,4.7533922E-2,-1.3866191E-2],"categories":[],"categories_nodes":[],"categories_segments":[],"categories_sizes":[],"default_left":[0,0,0,0,0],"id":89,"left_children":[1,-1,3,-1,-1],"loss_changes":[4.0496607E0,0E0,5.0251746E-1,0E0,0E0],"parents":[2147483647,0,0,2,2],"right_children":[2,-1,4,-1,-1],"split_conditions":[2.08E2,-4.6712365E-2,1.71E1,4.7533922E-2,-1.3866191E-2],"split_indices":[2,0,1,0,0],"split_type":[0,0,0,0,0],"sum_hessian":[1.9419231E1,9.215526E0,1.0203705E1,9.117858E0,1.0858474E0],"tree_param":{"num_deleted":"0","num_feature":"9","num_nodes":"5","size_leaf_vector":"1"}},{"base_weights":[9.38443E-2,3.3250192E-1,-3.6580023E-1,-1.0003315E-1,4.2543292E-1,-8.2748316E-2,-4.3959517E-2,2.9745042E-2,-3.9535023E-2,4.8109796E-2,1.60714E-2,1.4094013E-2,-2.6246328E-2],"categories":[],"categories_nodes":[],"categories_segments":[],"categories_sizes":[],"default_left":[0,0,0,0,0,0,0,0,0,0,0,0,0],"id":90,"left_children":[1,3,5,7,9,11,-1,-1,-1,-1,-1,-1,-1],"loss_changes":[2.797278E0,7.089591E-1,1.4769304E-1,5.568083E-1,1.2657976E-1,1.5977255E-1,0E0,0E0,0E0,0E0,0E0,0E0,0E0],"parents":[2147483647,0,0,1,1,2,2,3,3,4,4,5,5],"right_children":[2,4,6,8,10,12,-1,-1,-1,-1,-1,-1,-1],"split_conditions":[4.44E1,1.68E1,4.6E1,3.96E1,4.24E1,1.99E2,-4.3959517E-2,2.9745042E-2,-3.9535023E-2,4.8109796E-2,1.60714E-2,1.4094013E-2,-2.6246328E-2],"split_indices":[0,1,0,0,0,2,0,0,0,0,0,0,0],"split_type":[0,0,0,0,0,0,0,0,0,0,0,0,0],"sum_hessian":[2.3391115E1,1.5578845E1,7.8122706E0,2.7416718E0,1.2837173E1,2.0542407E0,5.75803E0,1.165601E0,1.5760709E0,9.931408E0,2.9057653E0,1.011277E0,1.0429636E0],"tree_param":{"num_deleted":"0","num_feature":"9","num_nodes":"13","size_leaf_vector":"1"}},{"base_weights":[-9.742909E-2,-4.5914717E-2,1.7032836E-1,-3.6287155E-2,3.2356375E-1,4.3972295E-2,4.8728884E-4],"categories":[],"categories_nodes":[],"categories_segments":[],"categories_sizes":[],"default_left":[0,0,0,0,0,0,0],"id":91,"left_children":[1,-1,3,-1,5,-1,-1],"loss_changes":[2.0953507E0,0E0,1.1548443E0,0E0,3.8253713E-1,0E0,0E0],"parents":[2147483647,0,0,2,2,4,4],"right_children":[2,-1,4,-1,6,-1,-1],"split_conditions":[1E0,-4.5914717E-2,4.09E1,-3.6287155E-2,4.075E3,4.3972295E-2,4.8728884E-4],"split_indices":[7,0,0,0,3,0,0],"split_type":[0,0,0,0,0,0,0],"sum_hessian":[1.9826935E1,8.129657E0,1.1697277E1,2.3058262E0,9.391452E0,6.6044316E0,2.78702E0],"tree_param":{"num_deleted":"0","num_feature":"9","num_nodes":"7","size_leaf_vector":"1"}},{"base_weights":[-1.36956E-2,-4.6236522E-2,3.9658502E-1,4.6925362E-2,-1.3151549E-2],"categories":[],"categories_nodes":[],"categories_segments":[],"categories_sizes":[],"default_left":[0,0,0,0,0],"id":92,"left_children":[1,-1,3,-1,-1],"loss_changes":[3.6756215E0,0E0,4.6266627E-1,0E0,0E0],"parents":[2147483647,0,0,2,2],"right_children":[2,-1,4,-1,-1],"split_conditions":[2.08E2,-4.6236522E-2,1.71E1,4.6925362E-2,-1.3151549E-2],"split_indices":[2,0,1,0,0],"split_type":[0,0,0,0,0],"sum_hessian":[1.797135E1,8.523441E0,9.447907E0,8.4030485E0,1.044859E0],"tree_param":{"num_deleted":"0","num_feature":"9","num_nodes":"5","size_leaf_vector":"1"}},{"base_weights":[9.2355125E-2,3.262836E-1,-3.5964367E-1,3.816195E-2,4.7552997E-1,-7.955672E-3,-4.3366894E-2,4.0626444E-2,-4.209816E-2,5.088928E-2,1.0437657E-2],"categories":[],"categories_nodes":[],"categories_segments":[],"categories_sizes":[],"default_left":[0,0,0,0,0,0,0,0,0,0,0],"id":93,"left_children":[1,3,5,7,9,-1,-1,-1,-1,-1,-1],"loss_changes":[2.5428777E0,6.5441716E-1,1.3756633E-1,1.2568337E0,7.33881E-2,0E0,0E0,0E0,0E0,0E0,0E0],"parents":[2147483647,0,0,1,1,2,2,3,3,4,4],"right_children":[2,4,6,8,10,-1,-1,-1,-1,-1,-1],"split_conditions":[4.44E1,1.75E1,4.6E1,4.08E1,2.01E2,-7.955672E-3,-4.3366894E-2,4.0626444E-2,-4.209816E-2,5.088928E-2,1.0437657E-2],"split_indices":[0,1,0,0,2,0,0,0,0,0,0],"split_type":[0,0,0,0,0,0,0,0,0,0,0],"sum_hessian":[2.193964E1,1.4640629E1,7.2990117E0,5.4244227E0,9.216207E0,1.959529E0,5.339483E0,3.0746207E0,2.3498018E0,8.115587E0,1.1006187E0],"tree_param":{"num_deleted":"0","num_feature":"9","num_nodes":"11","size_leaf_vector":"1"}},{"base_weights":[-9.387644E-2,-4.54028E-2,1.6587414E-1,-1.22464E-1,4.507805E-2,-4.57883E-2,1.802418E-2],"categories":[],"categories_nodes":[],"categories_segments":[],"categories_sizes":[],"default_left":[0,0,0,0,0,0,0],"id":94,"left_children":[1,-1,3,5,-1,-1,-1],"loss_changes":[1.9126512E0,0E0,1.0527487E0,7.7514356E-1,0E0,0E0,0E0],"parents":[2147483647,0,0,2,2,3,3],"right_children":[2,-1,4,6,-1,-1,-1],"split_conditions":[1E0,-4.54028E-2,4.44E1,1E0,4.507805E-2,-4.57883E-2,1.802418E-2],"split_indices":[7,0,0,4,0,0,0],"split_type":[0,0,0,0,0,0,0],"sum_hessian":[1.864028E1,7.4972253E0,1.1143054E1,5.821546E0,5.321508E0,2.5183768E0,3.3031695E0],"tree_param":{"num_deleted":"0","num_feature":"9","num_nodes":"7","size_leaf_vector":"1"}},{"base_weights":[-1.5569375E-2,-4.5749836E-2,3.878355E-1,4.6317596E-2,-1.2995203E-2],"categories":[],"categories_nodes":[],"categories_segments":[],"categories_sizes":[],"default_left":[0,0,0,0,0],"id":95,"left_children":[1,-1,3,-1,-1],"loss_changes":[3.324431E0,0E0,4.413066E-1,0E0,0E0],"parents":[2147483647,0,0,2,2],"right_children":[2,-1,4,-1,-1],"split_conditions":[2.08E2,-4.5749836E-2,1.71E1,4.6317596E-2,-1.2995203E-2],"split_indices":[2,0,1,0,0],"split_type":[0,0,0,0,0],"sum_hessian":[1.6652357E1,7.8827424E0,8.769615E0,7.7477527E0,1.0218624E0],"tree_param":{"num_deleted":"0","num_feature":"9","num_nodes":"5","size_leaf_vector":"1"}},{"base_weights":[9.03799E-2,3.1820202E-1,-3.5161185E-1,3.419372E-2,4.664589E-1,-7.535008E-3,-4.269418E-2,3.980373E-2,-4.1095745E-2,5.0116267E-2,9.863916E-3],"categories":[],"categories_nodes":[],"categories_segments":[],"categories_sizes":[],"default_left":[0,0,0,0,0,0,0,0,0,0,0],"id":96,"left_children":[1,3,5,7,9,-1,-1,-1,-1,-1,-1],"loss_changes":[2.283232E0,6.052891E-1,1.3034976E-1,1.1579497E0,7.329464E-2,0E0,0E0,0E0,0E0,0E0,0E0],"parents":[2147483647,0,0,1,1,2,2,3,3,4,4],"right_children":[2,4,6,8,10,-1,-1,-1,-1,-1,-1],"split_conditions":[4.44E1,1.75E1,4.6E1,4.08E1,2.01E2,-7.535008E-3,-4.269418E-2,3.980373E-2,-4.1095745E-2,5.0116267E-2,9.863916E-3],"split_indices":[0,1,0,0,2,0,0,0,0,0,0],"split_type":[0,0,0,0,0,0,0,0,0,0,0],"sum_hessian":[2.0563509E1,1.3754106E1,6.809402E0,5.139418E0,8.614688E0,1.8875073E0,4.921895E0,2.886214E0,2.2532043E0,7.5407014E0,1.0739862E0],"tree_param":{"num_deleted":"0","num_feature":"9","num_nodes":"11","size_leaf_vector":"1"}},{"base_weights":[-9.101625E-2,-4.4880547E-2,1.620255E-1,-3.479488E-2,3.0818173E-1,4.2620007E-2,-4.5395098E-4],"categories":[],"categories_nodes":[],"categories_segments":[],"categories_sizes":[],"default_left":[0,0,0,0,0,0,0],"id":97,"left_children":[1,-1,3,-1,5,-1,-1],"loss_changes":[1.7448313E0,0E0,9.6833634E-1,0E0,3.529086E-1,0E0,0E0],"parents":[2147483647,0,0,2,2,4,4],"right_children":[2,-1,4,-1,6,-1,-1],"split_conditions":[1E0,-4.4880547E-2,4.09E1,-3.479488E-2,4.075E3,4.2620007E-2,-4.5395098E-4],"split_indices":[7,0,0,0,3,0,0],"split_type":[0,0,0,0,0,0,0],"sum_hessian":[1.7469124E1,6.9162407E0,1.0552883E1,2.0431564E0,8.509727E0,5.914696E0,2.5950308E0],"tree_param":{"num_deleted":"0","num_feature":"9","num_nodes":"7","size_leaf_vector":"1"}},{"base_weights":[-1.6305372E-2,-4.524572E-2,3.803527E-1,4.5545068E-2,-6.124031E-3],"categories":[],"categories_nodes":[],"categories_segments":[],"categories_sizes":[],"default_left":[0,0,0,0,0],"id":98,"left_children":[1,-1,3,-1,-1],"loss_changes":[3.0148144E0,0E0,3.3128822E-1,0E0,0E0],"parents":[2147483647,0,0,2,2],"right_children":[2,-1,4,-1,-1],"split_conditions":[2.08E2,-4.524572E-2,1.69E1,4.5545068E-2,-6.124031E-3],"split_indices":[2,0,1,0,0],"split_type":[0,0,0,0,0],"sum_hessian":[1.5431617E1,7.2829065E0,8.14871E0,6.937524E0,1.2111866E0],"tree_param":{"num_deleted":"0","num_feature":"9","num_nodes":"5","size_leaf_vector":"1"}},{"base_weights":[8.915234E-2,3.1329817E-1,-3.4459272E-1,3.0883132E-2,4.6019623E-1,-7.1437494E-3,-4.208828E-2,3.8853727E-2,-3.9788224E-2,4.9569834E-2,9.59952E-3],"categories":[],"categories_nodes":[],"categories_segments":[],"categories_sizes":[],"default_left":[0,0,0,0,0,0,0,0,0,0,0],"id":99,"left_children":[1,3,5,7,9,-1,-1,-1,-1,-1,-1],"loss_changes":[2.0826788E0,5.6306934E-1,1.2406683E-1,1.0491174E0,6.984186E-2,0E0,0E0,0E0,0E0,0E0,0E0],"parents":[2147483647,0,0,1,1,2,2,3,3,4,4],"right_children":[2,4,6,8,10,-1,-1,-1,-1,-1,-1],"split_conditions":[4.44E1,1.75E1,4.6E1,4.08E1,2.01E2,-7.1437494E-3,-4.208828E-2,3.8853727E-2,-3.9788224E-2,4.9569834E-2,9.59952E-3],"split_indices":[0,1,0,0,2,0,0,0,0,0,0],"split_type":[0,0,0,0,0,0,0,0,0,0,0],"sum_hessian":[1.9311409E1,1.2915021E1,6.396387E0,4.8332386E0,8.081782E0,1.8191934E0,4.5771937E0,2.6862931E0,2.1469452E0,7.0349617E0,1.0468208E0],"tree_param":{"num_deleted":"0","num_feature":"9","num_nodes":"11","size_leaf_vector":"1"}},{"base_weights":[-8.834271E-2,-4.4350203E-2,1.5735057E-1,-1.1458742E-1,4.3726187E-2,-4.382692E-2,1.7491277E-2],"categories":[],"categories_nodes":[],"categories_segments":[],"categories_sizes":[],"default_left":[0,0,0,0,0,0,0],"id":100,"left_children":[1,-1,3,5,-1,-1,-1],"loss_changes":[1.5910654E0,0E0,8.906906E-1,6.75786E-1,0E0,0E0,0E0],"parents":[2147483647,0,0,2,2,3,3],"right_children":[2,-1,4,6,-1,-1,-1],"split_conditions":[1E0,-4.4350203E-2,4.44E1,1E0,4.3726187E-2,-4.382692E-2,1.7491277E-2],"split_indices":[7,0,0,4,0,0,0],"split_type":[0,0,0,0,0,0,0],"sum_hessian":[1.6433825E1,6.3907046E0,1.0043119E1,5.393695E0,4.649425E0,2.3038945E0,3.0898004E0],"tree_param":{"num_deleted":"0","num_feature":"9","num_nodes":"7","size_leaf_vector":"1"}},{"base_weights":[-1.7633809E-2,-4.473895E-2,3.7108964E-1,4.4935375E-2,-6.3320114E-3],"categories":[],"categories_nodes":[],"categories_segments":[],"categories_sizes":[],"default_left":[0,0,0,0,0],"id":101,"left_children":[1,-1,3,-1,-1],"loss_changes":[2.7301877E0,0E0,3.21043E-1,0E0,0E0],"parents":[2147483647,0,0,2,2],"right_children":[2,-1,4,-1,-1],"split_conditions":[2.08E2,-4.473895E-2,1.69E1,4.4935375E-2,-6.3320114E-3],"split_indices":[2,0,1,0,0],"split_type":[0,0,0,0,0],"sum_hessian":[1.4349132E1,6.7432117E0,7.6059203E0,6.4156613E0,1.1902587E0],"tree_param":{"num_deleted":"0","num_feature":"9","num_nodes":"5","size_leaf_vector":"1"}},{"base_weights":[8.7066814E-2,3.0546027E-1,-3.3672932E-1,2.7362337E-2,4.5113352E-1,-6.7716935E-3,-4.1398164E-2,3.8052823E-2,-3.8836997E-2,4.8791226E-2,9.114212E-3],"categories":[],"categories_nodes":[],"categories_segments":[],"categories_sizes":[],"default_left":[0,0,0,0,0,0,0,0,0,0,0],"id":102,"left_children":[1,3,5,7,9,-1,-1,-1,-1,-1,-1],"loss_changes":[1.8742962E0,5.2058053E-1,1.1711776E-1,9.680289E-1,6.897509E-2,0E0,0E0,0E0,0E0,0E0,0E0],"parents":[2147483647,0,0,1,1,2,2,3,3,4,4],"right_children":[2,4,6,8,10,-1,-1,-1,-1,-1,-1],"split_conditions":[4.44E1,1.75E1,4.6E1,4.08E1,2.01E2,-6.7716935E-3,-4.1398164E-2,3.8052823E-2,-3.8836997E-2,4.8791226E-2,9.114212E-3],"split_indices":[0,1,0,0,2,0,0,0,0,0,0],"split_type":[0,0,0,0,0,0,0,0,0,0,0],"sum_hessian":[1.8139452E1,1.2154923E1,5.9845285E0,4.5866327E0,7.568291E0,1.7538253E0,4.230703E0,2.5257118E0,2.0609207E0,6.5443406E0,1.0239505E0],"tree_param":{"num_deleted":"0","num_feature":"9","num_nodes":"11","size_leaf_vector":"1"}},{"base_weights":[-8.55867E-2,-4.380683E-2,1.5400232E-1,-3.3335444E-2,2.9417595E-1,4.113374E-2,-7.736128E-4],"categories":[],"categories_nodes":[],"categories_segments":[],"categories_sizes":[],"default_left":[0,0,0,0,0,0,0],"id":103,"left_children":[1,-1,3,-1,5,-1,-1],"loss_changes":[1.4553754E0,0E0,8.170079E-1,0E0,3.1107932E-1,0E0,0E0],"parents":[2147483647,0,0,2,2,4,4],"right_children":[2,-1,4,-1,6,-1,-1],"split_conditions":[1E0,-4.380683E-2,4.09E1,-3.3335444E-2,4.075E3,4.113374E-2,-7.736128E-4],"split_indices":[7,0,0,0,3,0,0],"split_type":[0,0,0,0,0,0,0],"sum_hessian":[1.5434578E1,5.910572E0,9.524006E0,1.8195671E0,7.704438E0,5.289377E0,2.4150612E0],"tree_param":{"num_deleted":"0","num_feature":"9","num_nodes":"7","size_leaf_vector":"1"}},{"base_weights":[-1.8126925E-2,-4.421051E-2,3.6336043E-1,4.4320703E-2,-6.2011085E-3],"categories":[],"categories_nodes":[],"categories_segments":[],"categories_sizes":[],"default_left":[0,0,0,0,0],"id":104,"left_children":[1,-1,3,-1,-1],"loss_changes":[2.479067E0,0E0,3.023919E-1,0E0,0E0],"parents":[2147483647,0,0,2,2],"right_children":[2,-1,4,-1,-1],"split_conditions":[2.08E2,-4.421051E-2,1.69E1,4.4320703E-2,-6.2011085E-3],"split_indices":[2,0,1,0,0],"split_type":[0,0,0,0,0],"sum_hessian":[1.3334058E1,6.2400646E0,7.093993E0,5.937529E0,1.1564643E0],"tree_param":{"num_deleted":"0","num_feature":"9","num_nodes":"5","size_leaf_vector":"1"}},{"base_weights":[8.590932E-2,3.008167E-1,-3.29828E-1,2.4511278E-2,4.4482672E-1,-6.43284E-3,-4.077151E-2,3.7119236E-2,-3.7597734E-2,1.0622497E-2,4.845014E-2],"categories":[],"categories_nodes":[],"categories_segments":[],"categories_sizes":[],"default_left":[0,0,0,0,0,0,0,0,0,0,0],"id":105,"left_children":[1,3,5,7,9,-1,-1,-1,-1,-1,-1],"loss_changes":[1.7135614E0,4.8386753E-1,1.1096352E-1,8.7800515E-1,5.755949E-2,0E0,0E0,0E0,0E0,0E0,0E0],"parents":[2147483647,0,0,1,1,2,2,3,3,4,4],"right_children":[2,4,6,8,10,-1,-1,-1,-1,-1,-1],"split_conditions":[4.44E1,1.75E1,4.6E1,4.08E1,3.425E3,-6.43284E-3,-4.077151E-2,3.7119236E-2,-3.7597734E-2,1.0622497E-2,4.845014E-2],"split_indices":[0,1,0,0,3,0,0,0,0,0,0],"split_type":[0,0,0,0,0,0,0,0,0,0,0],"sum_hessian":[1.7068645E1,1.14343195E1,5.6343255E0,4.318608E0,7.115712E0,1.6921351E0,3.9421902E0,2.3540163E0,1.9645917E0,1.1320107E0,5.983701E0],"tree_param":{"num_deleted":"0","num_feature":"9","num_nodes":"11","size_leaf_vector":"1"}},{"base_weights":[-8.3036505E-2,-4.3250393E-2,1.49689E-1,-1.0739474E-1,4.2392306E-2,-4.1902523E-2,1.6954286E-2],"categories":[],"categories_nodes":[],"categories_segments":[],"categories_sizes":[],"default_left":[0,0,0,0,0,0,0],"id":106,"left_children":[1,-1,3,5,-1,-1,-1],"loss_changes":[1.3292327E0,0E0,7.5586385E-1,5.887052E-1,0E0,0E0,0E0],"parents":[2147483647,0,0,2,2,3,3],"right_children":[2,-1,4,6,-1,-1,-1],"split_conditions":[1E0,-4.3250393E-2,4.44E1,1E0,4.2392306E-2,-4.1902523E-2,1.6954286E-2],"split_indices":[7,0,0,4,0,0,0],"split_type":[0,0,0,0,0,0,0],"sum_hessian":[1.4547668E1,5.4721293E0,9.075539E0,4.998254E0,4.0772853E0,2.1104045E0,2.887849E0],"tree_param":{"num_deleted":"0","num_feature":"9","num_nodes":"7","size_leaf_vector":"1"}},{"base_weights":[-1.9459551E-2,-4.36795E-2,3.5404098E-1,4.3699667E-2,-6.388052E-3],"categories":[],"categories_nodes":[],"categories_segments":[],"categories_sizes":[],"default_left":[0,0,0,0,0],"id":107,"left_children":[1,-1,3,-1,-1],"loss_changes":[2.2472339E0,0E0,2.9267484E-1,0E0,0E0],"parents":[2147483647,0,0,2,2],"right_children":[2,-1,4,-1,-1],"split_conditions":[2.08E2,-4.36795E-2,1.69E1,4.3699667E-2,-6.388052E-3],"split_indices":[2,0,1,0,0],"split_type":[0,0,0,0,0],"sum_hessian":[1.2424797E1,5.7880197E0,6.636778E0,5.499506E0,1.137272E0],"tree_param":{"num_deleted":"0","num_feature":"9","num_nodes":"5","size_leaf_vector":"1"}},{"base_weights":[8.385556E-2,3.8120204E-1,-2.0537399E-1,-3.631814E-3,4.515596E-2,-4.03751E-2,1.1903217E-1,4.1280244E-2,-2.9676024E-2],"categories":[],"categories_nodes":[],"categories_segments":[],"categories_sizes":[],"default_left":[0,0,0,0,0,0,0,0,0],"id":108,"left_children":[1,3,5,-1,-1,-1,7,-1,-1],"loss_changes":[1.5463254E0,2.7393603E-1,6.4674747E-1,0E0,0E0,0E0,6.4803475E-1,0E0,0E0],"parents":[2147483647,0,0,1,1,2,2,6,6],"right_children":[2,4,6,-1,-1,-1,8,-1,-1],"split_conditions":[4.24E1,1.67E1,1.83E1,-3.631814E-3,4.515596E-2,-4.03751E-2,4.6E1,4.1280244E-2,-2.9676024E-2],"split_indices":[0,1,1,0,0,0,0,0,0],"split_type":[0,0,0,0,0,0,0,0,0],"sum_hessian":[1.6069918E1,7.7669773E0,8.30294E0,1.1898578E0,6.5771194E0,5.0005054E0,3.3024344E0,1.9393878E0,1.3630468E0],"tree_param":{"num_deleted":"0","num_feature":"9","num_nodes":"9","size_leaf_vector":"1"}},{"base_weights":[-8.0441885E-2,-4.2685814E-2,1.4678837E-1,-3.192636E-2,2.8187686E-1,3.9710775E-2,-9.122016E-4],"categories":[],"categories_nodes":[],"categories_segments":[],"categories_sizes":[],"default_left":[0,0,0,0,0,0,0],"id":109,"left_children":[1,-1,3,-1,5,-1,-1],"loss_changes":[1.2192241E0,0E0,6.9545615E-1,0E0,2.7143914E-1,0E0,0E0],"parents":[2147483647,0,0,2,2,4,4],"right_children":[2,-1,4,-1,6,-1,-1],"split_conditions":[1E0,-4.2685814E-2,4.09E1,-3.192636E-2,4.075E3,3.9710775E-2,-9.122016E-4],"split_indices":[7,0,0,0,3,0,0],"split_type":[0,0,0,0,0,0,0],"sum_hessian":[1.3692852E1,5.075953E0,8.6168995E0,1.6300162E0,6.986883E0,4.743784E0,2.2430992E0],"tree_param":{"num_deleted":"0","num_feature":"9","num_nodes":"7","size_leaf_vector":"1"}},{"base_weights":[-1.9848207E-2,-4.3135136E-2,3.4741405E-1,4.307143E-2,-6.04019E-3],"categories":[],"categories_nodes":[],"categories_segments":[],"categories_sizes":[],"default_left":[0,0,0,0,0],"id":110,"left_children":[1,-1,3,-1,-1],"loss_changes":[2.04953E0,0E0,2.7046722E-1,0E0,0E0],"parents":[2147483647,0,0,2,2],"right_children":[2,-1,4,-1,-1],"split_conditions":[2.08E2,-4.3135136E-2,1.69E1,4.307143E-2,-6.04019E-3],"split_indices":[2,0,1,0,0],"split_type":[0,0,0,0,0],"sum_hessian":[1.1569827E1,5.3739824E0,6.1958447E0,5.0983167E0,1.0975276E0],"tree_param":{"num_deleted":"0","num_feature":"9","num_nodes":"5","size_leaf_vector":"1"}},{"base_weights":[8.299117E-2,2.8932652E-1,-3.1808013E-1,1.7834658E-2,4.3124697E-1,-5.9167854E-3,-3.94479E-2,3.5486616E-2,-3.5938773E-2,9.386307E-3,4.7139198E-2],"categories":[],"categories_nodes":[],"categories_segments":[],"categories_sizes":[],"default_left":[0,0,0,0,0,0,0,0,0,0,0],"id":111,"left_children":[1,3,5,7,9,-1,-1,-1,-1,-1,-1],"loss_changes":[1.4264188E0,4.2271954E-1,9.442973E-2,7.476956E-1,5.452919E-2,0E0,0E0,0E0,0E0,0E0,0E0],"parents":[2147483647,0,0,1,1,2,2,3,3,4,4],"right_children":[2,4,6,8,10,-1,-1,-1,-1,-1,-1],"split_conditions":[4.44E1,1.75E1,4.6E1,4.08E1,3.425E3,-5.9167854E-3,-3.94479E-2,3.5486616E-2,-3.5938773E-2,9.386307E-3,4.7139198E-2],"split_indices":[0,1,0,0,3,0,0,0,0,0,0],"split_type":[0,0,0,0,0,0,0,0,0,0,0],"sum_hessian":[1.5124545E1,1.0170724E1,4.9538207E0,3.8779411E0,6.292783E0,1.5330033E0,3.4208176E0,2.0793762E0,1.7985649E0,1.0241122E0,5.2686706E0],"tree_param":{"num_deleted":"0","num_feature":"9","num_nodes":"11","size_leaf_vector":"1"}},{"base_weights":[-7.7506185E-2,-4.208482E-2,1.4344831E-1,-1.0089224E-1,4.109634E-2,-4.005628E-2,1.6429441E-2],"categories":[],"categories_nodes":[],"categories_segments":[],"categories_sizes":[],"default_left":[0,0,0,0,0,0,0],"id":112,"left_children":[1,-1,3,5,-1,-1,-1],"loss_changes":[1.1169373E0,0E0,6.44111E-1,5.12542E-1,0E0,0E0,0E0],"parents":[2147483647,0,0,2,2,3,3],"right_children":[2,-1,4,6,-1,-1,-1],"split_conditions":[1E0,-4.208482E-2,4.44E1,1E0,4.109634E-2,-4.005628E-2,1.6429441E-2],"split_indices":[7,0,0,4,0,0,0],"split_type":[0,0,0,0,0,0,0],"sum_hessian":[1.2927315E1,4.707551E0,8.219764E0,4.621486E0,3.5982773E0,1.9300103E0,2.6914759E0],"tree_param":{"num_deleted":"0","num_feature":"9","num_nodes":"7","size_leaf_vector":"1"}},{"base_weights":[-2.1966988E-2,-4.255223E-2,3.36969E-1,4.2399224E-2,-6.382393E-3],"categories":[],"categories_nodes":[],"categories_segments":[],"categories_sizes":[],"default_left":[0,0,0,0,0],"id":113,"left_children":[1,-1,3,-1,-1],"loss_changes":[1.849555E0,0E0,2.6395816E-1,0E0,0E0],"parents":[2147483647,0,0,2,2],"right_children":[2,-1,4,-1,-1],"split_conditions":[2.08E2,-4.255223E-2,1.69E1,4.2399224E-2,-6.382393E-3],"split_indices":[2,0,1,0,0],"split_type":[0,0,0,0,0],"sum_hessian":[1.0778812E1,4.9867024E0,5.79211E0,4.7112775E0,1.0808325E0],"tree_param":{"num_deleted":"0","num_feature":"9","num_nodes":"5","size_leaf_vector":"1"}},{"base_weights":[8.093534E-2,2.819064E-1,-3.1049564E-1,1.5148974E-2,4.2208806E-1,-5.639005E-3,-3.871216E-2,3.4725226E-2,-3.50817E-2,4.5980364E-2,1.1658649E-2],"categories":[],"categories_nodes":[],"categories_segments":[],"categories_sizes":[],"default_left":[0,0,0,0,0,0,0,0,0,0,0],"id":114,"left_children":[1,3,5,7,9,-1,-1,-1,-1,-1,-1],"loss_changes":[1.2884412E0,3.9040238E-1,8.8274956E-2,6.921436E-1,2.6110291E-2,0E0,0E0,0E0,0E0,0E0,0E0],"parents":[2147483647,0,0,1,1,2,2,3,3,4,4],"right_children":[2,4,6,8,10,-1,-1,-1,-1,-1,-1],"split_conditions":[4.44E1,1.75E1,4.6E1,4.08E1,1.99E2,-5.639005E-3,-3.871216E-2,3.4725226E-2,-3.50817E-2,4.5980364E-2,1.1658649E-2],"split_indices":[0,1,0,0,2,0,0,0,0,0,0],"split_type":[0,0,0,0,0,0,0,0,0,0,0],"sum_hessian":[1.4265883E1,9.611096E0,4.6547866E0,3.6925185E0,5.9185786E0,1.4806372E0,3.1741495E0,1.9626273E0,1.7298911E0,4.8186193E0,1.099959E0],"tree_param":{"num_deleted":"0","num_feature":"9","num_nodes":"11","size_leaf_vector":"1"}},{"base_weights":[-7.501155E-2,-4.1493602E-2,1.408244E-1,-3.050339E-2,2.7090934E-1,3.8354043E-2,-9.044003E-4],"categories":[],"categories_nodes":[],"categories_segments":[],"categories_sizes":[],"default_left":[0,0,0,0,0,0,0],"id":115,"left_children":[1,-1,3,-1,5,-1,-1],"loss_changes":[1.026168E0,0E0,5.938564E-1,0E0,2.3532051E-1,0E0,0E0],"parents":[2147483647,0,0,2,2,4,4],"right_children":[2,-1,4,-1,6,-1,-1],"split_conditions":[1E0,-4.1493602E-2,4.09E1,-3.050339E-2,4.075E3,3.8354043E-2,-9.044003E-4],"split_indices":[7,0,0,0,3,0,0],"split_type":[0,0,0,0,0,0,0],"sum_hessian":[1.2190163E1,4.375942E0,7.814221E0,1.4611914E0,6.3530293E0,4.266508E0,2.0865211E0],"tree_param":{"num_deleted":"0","num_feature":"9","num_nodes":"7","size_leaf_vector":"1"}},{"base_weights":[-2.2258818E-2,-4.1980997E-2,3.3041522E-1,4.1752458E-2,-6.0358597E-3],"categories":[],"categories_nodes":[],"categories_segments":[],"categories_sizes":[],"default_left":[0,0,0,0,0],"id":116,"left_children":[1,-1,3,-1,-1],"loss_changes":[1.6890643E0,0E0,2.4370915E-1,0E0,0E0],"parents":[2147483647,0,0,2,2],"right_children":[2,-1,4,-1,-1],"split_conditions":[2.08E2,-4.1980997E-2,1.69E1,4.1752458E-2,-6.0358597E-3],"split_indices":[2,0,1,0,0],"split_type":[0,0,0,0,0],"sum_hessian":[1.0057679E1,4.638536E0,5.419143E0,4.3753552E0,1.0437882E0],"tree_param":{"num_deleted":"0","num_feature":"9","num_nodes":"5","size_leaf_vector":"1"}},{"base_weights":[7.997376E-2,2.7776867E-1,-3.0395678E-1,1.3119096E-2,4.1570145E-1,-5.388917E-3,-3.8052045E-2,3.382655E-2,-3.3965364E-2,1.1467805E-2,4.5560807E-2],"categories":[],"categories_nodes":[],"categories_segments":[],"categories_sizes":[],"default_left":[0,0,0,0,0,0,0,0,0,0,0],"id":117,"left_children":[1,3,5,7,9,-1,-1,-1,-1,-1,-1],"loss_changes":[1.1842672E0,3.6254656E-1,8.2920134E-2,6.295169E-1,2.6970863E-2,0E0,0E0,0E0,0E0,0E0,0E0],"parents":[2147483647,0,0,1,1,2,2,3,3,4,4],"right_children":[2,4,6,8,10,-1,-1,-1,-1,-1,-1],"split_conditions":[4.44E1,1.75E1,4.6E1,4.08E1,3.45E3,-5.388917E-3,-3.8052045E-2,3.382655E-2,-3.3965364E-2,1.1467805E-2,4.5560807E-2],"split_indices":[0,1,0,0,3,0,0,0,0,0,0],"split_type":[0,0,0,0,0,0,0,0,0,0,0],"sum_hessian":[1.3483074E1,9.081132E0,4.4019423E0,3.4865854E0,5.5945473E0,1.4312215E0,2.9707205E0,1.8357346E0,1.6508508E0,1.1082748E0,4.4862723E0],"tree_param":{"num_deleted":"0","num_feature":"9","num_nodes":"11","size_leaf_vector":"1"}},{"base_weights":[-7.276146E-2,-4.0887915E-2,1.3710988E-1,-9.477589E-2,3.9770197E-2,-3.822763E-2,1.5839512E-2],"categories":[],"categories_nodes":[],"categories_segments":[],"categories_sizes":[],"default_left":[0,0,0,0,0,0,0],"id":118,"left_children":[1,-1,3,5,-1,-1,-1],"loss_changes":[9.4050986E-1,0E0,5.493586E-1,4.4545043E-1,0E0,0E0,0E0],"parents":[2147483647,0,0,2,2,3,3],"right_children":[2,-1,4,6,-1,-1,-1],"split_conditions":[1E0,-4.0887915E-2,4.44E1,1E0,3.9770197E-2,-3.822763E-2,1.5839512E-2],"split_indices":[7,0,0,4,0,0,0],"split_type":[0,0,0,0,0,0,0],"sum_hessian":[1.1537993E1,4.0705695E0,7.4674234E0,4.288046E0,3.1793776E0,1.7691034E0,2.5189426E0],"tree_param":{"num_deleted":"0","num_feature":"9","num_nodes":"7","size_leaf_vector":"1"}},{"base_weights":[-2.3614224E-2,-4.1403864E-2,3.2119977E-1,4.1097485E-2,-6.171481E-3],"categories":[],"categories_nodes":[],"categories_segments":[],"categories_sizes":[],"default_left":[0,0,0,0,0],"id":119,"left_children":[1,-1,3,-1,-1],"loss_changes":[1.5353233E0,0E0,2.3487145E-1,0E0,0E0],"parents":[2147483647,0,0,2,2],"right_children":[2,-1,4,-1,-1],"split_conditions":[2.08E2,-4.1403864E-2,1.69E1,4.1097485E-2,-6.171481E-3],"split_indices":[2,0,1,0,0],"split_type":[0,0,0,0,0],"sum_hessian":[9.416688E0,4.32211E0,5.094578E0,4.067633E0,1.0269448E0],"tree_param":{"num_deleted":"0","num_feature":"9","num_nodes":"5","size_leaf_vector":"1"}},{"base_weights":[7.80007E-2,3.5587257E-1,-1.8568873E-1,-8.793779E-4,4.2788625E-2,-3.789261E-2,1.212047E-1,3.711601E-2,-2.629588E-2],"categories":[],"categories_nodes":[],"categories_segments":[],"categories_sizes":[],"default_left":[0,0,0,0,0,0,0,0,0],"id":120,"left_children":[1,3,5,-1,-1,-1,7,-1,-1],"loss_changes":[1.0734631E0,1.885643E-1,5.0324005E-1,0E0,0E0,0E0,4.5645425E-1,0E0,0E0],"parents":[2147483647,0,0,1,1,2,2,6,6],"right_children":[2,4,6,-1,-1,-1,8,-1,-1],"split_conditions":[4.24E1,1.68E1,1.83E1,-8.793779E-4,4.2788625E-2,-3.789261E-2,4.6E1,3.711601E-2,-2.629588E-2],"split_indices":[0,1,1,0,0,0,0,0,0],"split_type":[0,0,0,0,0,0,0,0,0],"sum_hessian":[1.2748543E1,6.037124E0,6.7114186E0,1.1403666E0,4.8967576E0,3.9742756E0,2.7371433E0,1.6787293E0,1.058414E0],"tree_param":{"num_deleted":"0","num_feature":"9","num_nodes":"9","size_leaf_vector":"1"}},{"base_weights":[-7.044201E-2,-4.0273495E-2,1.3451943E-1,-2.9199272E-2,2.605993E-1,3.6981393E-2,-8.6747855E-4],"categories":[],"categories_nodes":[],"categories_segments":[],"categories_sizes":[],"default_left":[0,0,0,0,0,0,0],"id":121,"left_children":[1,-1,3,-1,5,-1,-1],"loss_changes":[8.65056E-1,0E0,5.1239115E-1,0E0,2.029132E-1,0E0,0E0],"parents":[2147483647,0,0,2,2,4,4],"right_children":[2,-1,4,-1,6,-1,-1],"split_conditions":[1E0,-4.0273495E-2,4.09E1,-2.9199272E-2,4.075E3,3.6981393E-2,-8.6747855E-4],"split_indices":[7,0,0,0,3,0,0],"split_type":[0,0,0,0,0,0,0],"sum_hessian":[1.0905934E1,3.7924726E0,7.1134615E0,1.3227684E0,5.7906933E0,3.8541274E0,1.9365659E0],"tree_param":{"num_deleted":"0","num_feature":"9","num_nodes":"7","size_leaf_vector":"1"}},{"base_weights":[-2.382951E-2,-4.0810518E-2,3.1476733E-1,4.0348493E-2,-4.7512683E-3],"categories":[],"categories_nodes":[],"categories_segments":[],"categories_sizes":[],"default_left":[0,0,0,0,0],"id":122,"left_children":[1,-1,3,-1,-1],"loss_changes":[1.4045941E0,0E0,2.048899E-1,0E0,0E0],"parents":[2147483647,0,0,2,2],"right_children":[2,-1,4,-1,-1],